tensor([[[[ 3.123253e-02,  3.504916e-02, -3.157414e-02,  1.241018e-03,
           -1.191928e-02, -2.189442e-02, -4.349903e-03, -3.600792e-02,
            1.892476e-02, -2.470048e-02,  2.118239e-02],
          [-6.701916e-04,  6.433459e-03,  1.411702e-02,  3.255214e-02,
           -2.838751e-02, -1.333557e-02,  1.709102e-02,  2.189760e-02,
            1.348656e-02, -3.765660e-02, -2.193471e-02],
          [-2.879803e-02,  6.808591e-03,  2.336584e-02, -2.464181e-03,
           -1.236830e-02, -6.925156e-03, -3.525221e-03, -1.815382e-02,
           -2.274738e-02, -3.739928e-02,  1.427243e-02],
          [-2.942266e-02, -1.318201e-02, -1.157335e-02,  4.401459e-02,
           -1.653367e-02,  1.469214e-02,  3.063499e-02,  1.720613e-02,
            3.112857e-03, -3.718204e-02, -2.578076e-02],
          [-1.271584e-02,  1.320514e-02, -1.080673e-02,  1.822088e-02,
            3.221683e-02,  1.129566e-02, -2.143771e-02,  3.019045e-02,
            6.174667e-03, -2.993079e-02,  6.539489e-03],
          [ 2.738592e-02,  7.630980e-03,  1.207784e-02,  2.267486e-02,
           -2.559222e-03,  2.509048e-02, -2.433290e-02, -2.417970e-02,
            3.203256e-02, -2.102192e-02,  3.408234e-02],
          [ 2.422757e-02,  1.773239e-02, -1.463130e-02, -1.400952e-02,
            2.126692e-02,  2.528366e-02, -4.134037e-02,  2.922998e-02,
            6.524305e-03, -6.695293e-03, -3.980778e-03],
          [ 1.298240e-02, -3.417734e-02, -5.116592e-03,  2.988058e-02,
           -1.902776e-02,  3.276305e-02,  3.170054e-02, -2.679558e-02,
           -2.395177e-02, -1.761831e-04, -2.931807e-02],
          [ 2.965119e-02,  3.008532e-02, -9.246748e-03, -2.217849e-02,
            2.966863e-02,  3.473185e-02, -3.086967e-02, -2.811907e-02,
           -3.291944e-02,  2.463671e-02, -1.586282e-02],
          [-1.108023e-02, -3.442360e-02,  3.030608e-03,  2.039370e-02,
           -6.632805e-03,  8.440434e-04, -2.984541e-03, -1.933367e-03,
           -2.632040e-03, -2.419331e-02, -1.625518e-02],
          [-6.804681e-03, -1.482712e-02, -5.494573e-03, -3.277939e-02,
           -2.713268e-02,  1.140312e-02, -4.499266e-02, -1.085292e-02,
           -1.480135e-02, -2.721229e-02, -1.458499e-02]],

         [[ 2.830242e-02, -1.507188e-02, -2.819397e-02, -2.706881e-02,
           -1.281353e-02, -2.583048e-02, -2.319735e-02,  3.895849e-02,
            2.115123e-03,  3.275758e-02, -5.544078e-03],
          [-3.729449e-02, -4.229909e-02,  1.247153e-02, -6.363369e-03,
            2.099791e-02, -1.260508e-02,  1.408313e-02,  2.878778e-02,
           -3.180238e-02,  5.439091e-03,  2.455369e-02],
          [ 2.915933e-02, -2.693049e-03,  4.908920e-03, -3.471403e-02,
            2.498932e-02,  2.441691e-03,  2.571839e-02,  3.679981e-02,
           -4.452570e-03, -8.602841e-03, -2.455790e-02],
          [-3.131214e-03,  8.191114e-04, -6.282877e-03, -2.845848e-02,
           -3.632669e-02, -2.024643e-02,  1.450092e-02,  1.753874e-02,
           -2.412347e-02,  6.597429e-03, -3.135325e-02],
          [ 1.275605e-02,  1.093237e-02,  1.624180e-02,  6.461159e-03,
           -8.838571e-03, -4.275400e-02, -2.772644e-02,  1.015928e-02,
           -2.235495e-02,  3.209366e-02,  1.215843e-02],
          [ 2.347783e-02, -1.580535e-02, -2.584652e-02, -1.257192e-02,
            2.425779e-02,  7.774653e-03, -7.154687e-04, -2.636496e-03,
           -2.542223e-02,  5.918600e-03, -6.480769e-05],
          [ 2.769525e-02, -1.252761e-03,  1.185043e-02,  2.680951e-02,
            2.693396e-02,  9.098584e-03,  3.388634e-03,  3.092319e-02,
            3.238269e-02, -1.307521e-02, -2.529218e-02],
          [ 4.387856e-02, -3.013022e-03,  2.392606e-02, -1.548731e-02,
           -1.939898e-02, -3.222280e-03, -1.392620e-02, -3.502293e-02,
           -3.790075e-02, -3.054686e-02,  2.932127e-02],
          [ 1.985921e-02, -1.541209e-02,  2.095576e-02,  3.803688e-04,
           -1.603612e-03,  1.950849e-02, -3.723523e-02, -8.280513e-03,
           -3.945815e-02, -3.195907e-03,  2.305318e-02],
          [ 2.031638e-02, -4.671003e-04, -9.039331e-03, -3.418684e-02,
           -1.003142e-02,  6.816579e-03,  1.249765e-02, -1.278308e-02,
            2.354767e-02,  1.504392e-03, -7.047090e-03],
          [ 2.612630e-02,  7.130889e-02,  3.637309e-02,  2.685715e-02,
            6.420766e-03,  5.635532e-03,  1.840513e-02,  7.536221e-03,
            7.767712e-03,  3.444408e-02,  1.657570e-02]],

         [[-5.663851e-03, -1.655652e-02, -2.472361e-02, -3.559394e-02,
            1.178185e-02,  1.786798e-02, -1.364009e-02, -7.119424e-03,
           -1.221369e-02,  8.883832e-03,  1.747243e-02],
          [-4.433324e-03, -3.110701e-02,  1.455148e-02, -5.648875e-03,
           -1.237091e-02, -3.509411e-02,  2.869024e-02, -2.356760e-02,
           -4.608124e-03, -3.730804e-03, -1.673889e-02],
          [-1.607555e-02, -8.674166e-03,  2.159245e-02, -1.831828e-02,
           -1.651861e-02, -2.887474e-02, -2.292981e-02,  2.208705e-03,
           -1.056884e-03, -2.523237e-02, -6.836252e-03],
          [-2.535079e-02,  3.582388e-02,  2.866346e-02,  3.548333e-03,
           -3.624266e-02, -2.679160e-02, -2.625861e-02, -6.641477e-03,
           -4.418438e-02,  2.743189e-02, -3.031393e-02],
          [ 2.791468e-02,  2.550986e-02, -2.719855e-02,  1.998088e-02,
            3.550502e-02,  3.003534e-02, -2.409987e-02, -3.257880e-02,
            4.941186e-03, -1.964542e-02, -2.892854e-02],
          [ 1.993596e-02,  2.932918e-02, -1.782282e-02, -2.588791e-02,
            2.451116e-03,  7.529841e-03, -1.420941e-02, -1.937302e-02,
           -2.398267e-02,  6.866761e-03,  3.070514e-02],
          [ 1.908251e-02,  3.537522e-03, -6.409374e-03,  1.825804e-02,
            2.802265e-02,  5.093794e-03, -5.122467e-03, -3.263770e-02,
           -1.797795e-02, -8.671062e-03,  1.433085e-02],
          [ 1.565692e-02,  1.752707e-02,  3.648589e-02,  2.565639e-02,
            2.182061e-02,  9.734387e-03, -1.884093e-02, -3.840978e-03,
           -2.350678e-02, -1.585143e-02,  5.774615e-03],
          [-2.232777e-02,  8.222488e-04, -2.423881e-02, -2.214749e-02,
           -1.335104e-02, -3.284998e-02, -3.021162e-02,  2.529416e-02,
           -1.382659e-02, -2.448658e-02,  3.143265e-02],
          [ 6.931292e-03,  1.176060e-02,  4.610683e-02,  2.226537e-02,
            2.841686e-02, -3.557393e-02,  2.679991e-02, -9.627819e-03,
            2.317383e-02,  1.427987e-02, -1.218493e-02],
          [ 6.752344e-03,  3.018570e-02, -1.456701e-02, -4.834423e-03,
            7.372074e-03,  8.250506e-03,  2.119795e-02, -3.198407e-02,
            1.028128e-02, -3.940626e-02, -2.519547e-02]],

         [[-6.505031e-04, -1.330802e-02, -4.613169e-02,  9.114461e-03,
           -1.699771e-03, -1.494081e-02, -1.679824e-02, -2.675366e-02,
            2.860989e-02,  3.154187e-02, -3.585409e-02],
          [ 3.325000e-03,  2.162396e-02,  2.536411e-02, -2.418376e-02,
           -1.318498e-02,  8.322923e-03, -3.018424e-02, -2.323975e-02,
           -2.299447e-02, -3.536904e-02,  6.119345e-03],
          [-1.998997e-02, -1.075464e-02,  5.368836e-03, -8.516564e-03,
            5.028737e-03, -1.183917e-02,  2.551766e-02, -1.025092e-02,
           -2.872128e-02,  2.681315e-02,  1.186619e-02],
          [ 1.916675e-02,  1.312274e-02, -2.869581e-02,  1.558705e-02,
           -3.657687e-02,  7.098828e-03, -1.114283e-02, -2.322541e-02,
            1.441346e-02, -2.604191e-02, -2.891395e-02],
          [-1.655413e-02,  2.394412e-02,  3.844576e-02,  1.182002e-02,
           -2.053390e-02, -2.655490e-03,  2.468522e-02, -1.677293e-02,
           -3.836243e-03, -4.056610e-02,  9.225054e-03],
          [-9.970210e-03,  1.849170e-02, -6.870306e-03, -1.872408e-02,
           -2.022354e-02, -1.142195e-03, -2.122487e-04,  4.152606e-02,
           -1.279183e-02,  1.662907e-02,  2.134085e-02],
          [ 6.144039e-03,  2.569940e-02, -2.758247e-02, -5.994779e-03,
            1.562149e-03, -2.310104e-02,  6.284154e-03, -8.996207e-03,
           -3.031399e-02,  2.186143e-02, -5.085125e-03],
          [-1.968386e-02, -7.237422e-03,  2.290312e-02,  4.359696e-02,
            2.947502e-02, -3.026194e-02, -1.285675e-02,  3.641158e-02,
           -3.147250e-02,  1.056551e-02, -2.251871e-02],
          [ 1.065836e-02,  1.169220e-02, -4.752427e-03,  1.467380e-03,
           -2.787286e-02, -3.172366e-02, -3.468236e-02, -1.408603e-02,
            1.481716e-02, -3.261931e-02, -2.156298e-02],
          [-2.268153e-02,  2.559937e-02,  2.182196e-02,  9.894303e-03,
            2.825277e-02, -3.741939e-02,  6.053888e-03,  3.753203e-02,
           -2.291149e-02,  4.501157e-03,  2.800490e-02],
          [ 3.421344e-02, -2.318837e-02,  2.024462e-02, -7.811960e-03,
           -3.196903e-02, -1.260850e-02, -8.006171e-03, -4.504774e-03,
           -4.052355e-02,  2.899756e-02, -2.276759e-02]],

         [[ 2.077075e-02,  1.269986e-02,  1.452807e-02,  3.799111e-02,
           -4.509711e-02, -2.626601e-02, -1.805462e-02, -4.198559e-02,
            2.093155e-02,  1.794172e-02, -3.683975e-02],
          [ 2.931702e-02,  3.772854e-02,  3.652446e-02, -1.780527e-03,
           -1.419997e-02, -2.422311e-03,  2.299293e-02, -1.447457e-02,
            1.446630e-02, -2.576204e-02, -6.207099e-03],
          [-1.803207e-02, -2.655833e-04,  3.696554e-03, -2.483507e-02,
           -4.980644e-02, -3.785123e-02,  4.340120e-03, -2.686635e-02,
           -1.232438e-02,  1.702457e-03, -6.648909e-03],
          [ 3.073745e-02, -2.945088e-02,  2.416695e-03,  1.168237e-03,
           -6.285982e-03, -3.422877e-02, -3.166799e-02, -3.947134e-02,
            1.547405e-02, -4.433441e-02, -3.422713e-02],
          [-4.022166e-02, -1.303486e-02, -1.143700e-02, -3.197762e-02,
           -2.336581e-02, -3.128025e-02,  1.900474e-02, -2.041948e-02,
           -1.544318e-02,  7.158618e-03, -3.072412e-02],
          [-5.794197e-03,  9.436358e-03,  6.986529e-03,  7.642060e-03,
           -3.616320e-02,  3.316512e-02, -1.792955e-03, -5.671182e-03,
            8.882869e-03, -1.997906e-04,  2.711189e-03],
          [-2.184612e-02, -1.749979e-02,  3.639144e-02,  1.699365e-02,
            1.591251e-02, -7.924237e-03,  9.376458e-04, -2.339310e-02,
           -2.316893e-02, -3.104421e-02, -2.115539e-02],
          [-1.727369e-02,  2.732468e-02, -3.032823e-02,  3.188181e-02,
           -2.662713e-02, -3.506150e-02,  1.078907e-03,  2.434946e-02,
           -2.488641e-02,  7.361319e-03,  1.436679e-02],
          [ 1.077205e-02,  1.055985e-02,  2.537277e-02,  3.187663e-02,
           -3.679077e-02, -1.525563e-02, -6.667362e-03,  3.123344e-02,
            1.841108e-02,  3.227085e-02,  2.878371e-03],
          [-3.225179e-02, -1.860400e-02, -1.491565e-02,  6.606178e-02,
           -2.245276e-02,  7.913908e-03,  4.291977e-02, -2.223113e-02,
            1.804256e-02,  3.290921e-02,  3.033728e-02],
          [-1.501382e-02, -2.686623e-02, -3.402397e-02,  6.086605e-02,
           -3.963371e-02,  3.063376e-02,  3.113168e-02, -2.383358e-02,
           -3.855013e-02, -1.910951e-02,  3.010997e-03]],

         [[-3.552517e-02, -8.147102e-03,  2.596712e-02,  1.919581e-03,
            4.524513e-03, -1.023893e-02,  2.497394e-03,  9.566428e-03,
            3.171452e-02,  1.958023e-02, -3.644206e-02],
          [ 4.084103e-03,  5.296730e-03,  3.092133e-02,  1.406817e-02,
           -2.389680e-03, -5.206576e-03,  3.339915e-02,  5.124793e-03,
           -2.636689e-02,  9.962467e-03,  2.169816e-02],
          [-2.631237e-02, -1.179206e-02, -6.854853e-03, -9.701642e-03,
            1.496403e-02,  3.158566e-02, -2.012770e-02, -2.743423e-02,
           -2.563520e-02,  1.303304e-02,  1.358921e-02],
          [ 4.780544e-03,  1.919807e-02, -1.346921e-02, -2.721176e-02,
            2.571095e-02, -3.170845e-02, -1.604939e-02, -3.284022e-02,
            2.048116e-02,  3.031629e-02,  1.560389e-02],
          [-1.241293e-02,  3.767382e-03,  1.704902e-02,  1.701699e-02,
            2.596956e-02,  1.840059e-02, -3.598104e-02, -1.126124e-03,
           -3.039970e-02,  2.896336e-02,  1.350543e-02],
          [-3.232188e-02,  5.709677e-03,  8.415977e-03,  5.929614e-03,
            2.654078e-02,  1.574052e-02,  1.908349e-02, -1.001628e-02,
            1.432834e-02, -1.288246e-02,  3.528655e-02],
          [-7.660230e-04,  2.007228e-02,  7.839068e-03, -5.571680e-03,
            1.322906e-02, -1.932186e-02, -3.239171e-02,  1.769326e-02,
            1.867342e-02,  1.386318e-02,  3.625941e-02],
          [ 1.863801e-02, -2.325678e-02, -1.553855e-02, -2.045841e-03,
            9.463260e-03, -2.404413e-02, -3.407113e-02, -2.748894e-02,
           -3.677294e-02,  2.065162e-02,  3.600715e-02],
          [-1.588490e-02, -5.517214e-03, -1.172815e-02, -3.910970e-02,
           -2.859426e-03,  1.685636e-02, -4.457898e-03,  6.747505e-03,
            7.449662e-03,  3.222836e-02, -3.974349e-03],
          [-1.849880e-02,  1.896783e-02, -1.103741e-02,  1.743421e-02,
           -3.306087e-02,  8.559338e-03,  1.873372e-02,  2.647394e-02,
           -5.295114e-03,  2.681355e-02, -1.029296e-02],
          [ 4.124139e-03, -2.190155e-02,  1.110585e-02, -1.675613e-02,
            2.671674e-02,  3.081947e-02,  2.917081e-02, -7.069365e-03,
            2.877712e-02, -5.050155e-03,  2.092027e-02]]],


        [[[ 1.349107e-02,  2.999627e-02, -1.134203e-02,  1.899932e-02,
           -6.867393e-03,  1.689722e-02, -6.109343e-03, -2.273630e-02,
           -1.633465e-02,  6.644232e-03, -3.560088e-02],
          [ 1.414876e-02,  9.532274e-03,  3.082888e-02,  1.399614e-02,
            2.371923e-02, -1.085595e-02,  9.084545e-03, -3.591458e-02,
            1.380355e-02, -2.457237e-02, -9.947251e-03],
          [ 5.113367e-03, -3.180107e-02,  1.795740e-02,  5.927645e-03,
            1.315630e-02,  2.336134e-02,  3.864832e-02, -2.037901e-02,
           -1.582826e-02, -2.032416e-02, -2.311663e-02],
          [-2.963278e-02,  3.003937e-02,  1.096896e-02, -3.084565e-02,
            3.749993e-04, -4.350535e-03,  2.603712e-02,  3.624494e-02,
            1.791431e-02,  1.829909e-02, -2.480030e-02],
          [-1.843342e-02, -2.273861e-02, -1.021342e-02,  2.076682e-02,
            1.097997e-02,  5.937004e-03, -3.300802e-02,  3.010767e-02,
            1.221837e-02,  2.675450e-02,  3.285173e-02],
          [-3.066357e-02,  3.909869e-02,  1.131246e-02, -3.599875e-02,
           -2.648950e-03, -5.247802e-03, -9.292757e-03,  2.696805e-02,
           -1.115054e-02, -1.445282e-02,  8.762221e-03],
          [-2.980246e-02,  7.249558e-03,  1.517598e-02,  1.748778e-02,
           -2.351091e-02,  2.331799e-02,  1.842341e-02, -3.917119e-03,
           -2.253371e-02,  1.684621e-02, -9.631154e-04],
          [-7.759308e-03,  1.925074e-02, -7.164235e-03,  2.168795e-03,
            2.930927e-02, -1.658905e-02,  2.714049e-02, -7.962112e-03,
           -2.348310e-02, -1.293400e-02,  1.733623e-02],
          [ 1.090473e-02, -3.081578e-02,  3.309463e-03, -1.995728e-02,
           -2.223428e-02,  9.453146e-03, -2.896365e-02,  2.349543e-02,
           -1.277030e-02, -3.027932e-03,  2.733500e-02],
          [ 5.529726e-03, -2.318848e-02,  2.603324e-02, -2.287731e-02,
            3.550087e-03,  1.834725e-02, -3.592448e-02, -2.569025e-02,
            2.078916e-02, -3.077371e-02, -2.184234e-02],
          [ 1.041300e-02,  2.952399e-02,  3.672575e-02, -2.999043e-02,
           -2.983088e-02,  3.327461e-02, -3.822484e-02, -1.220564e-02,
           -2.855378e-02, -2.806793e-02,  3.218297e-02]],

         [[ 8.428467e-03, -2.968466e-02, -1.231856e-02, -1.499237e-02,
           -2.630657e-02, -1.531469e-02, -2.623293e-02,  6.275818e-03,
           -2.842981e-02, -1.019244e-02,  1.528285e-02],
          [-3.102946e-02, -3.254786e-02, -1.060340e-02, -4.554146e-03,
           -3.810625e-03, -4.557426e-03, -3.211016e-02,  2.788639e-03,
            2.167271e-02, -1.961302e-03,  4.049336e-02],
          [ 2.946397e-02,  6.021796e-03, -2.478338e-02,  2.851062e-02,
            1.206807e-02, -2.212912e-02, -2.362607e-02, -2.659097e-02,
            3.342876e-02, -3.006903e-02,  1.968320e-02],
          [ 2.789876e-02, -2.883575e-02,  5.435234e-03,  1.844372e-03,
           -1.418894e-02, -3.272824e-02,  2.683011e-02, -1.939258e-02,
            2.179055e-02,  2.764171e-03,  4.100478e-02],
          [ 1.094721e-03, -3.062716e-02, -2.725085e-02, -2.732038e-02,
           -2.855504e-02, -1.609207e-02,  1.408096e-02, -1.002868e-02,
            8.135244e-03, -9.080562e-03,  1.859227e-02],
          [-1.277555e-03,  1.535539e-02,  1.522787e-02,  3.264996e-02,
           -3.412301e-02, -8.681166e-03, -2.888153e-02,  9.711448e-03,
           -2.650974e-02, -5.003085e-03, -2.740398e-02],
          [-4.084386e-03,  1.817984e-02,  1.391440e-02, -2.732547e-02,
           -1.162039e-02, -4.195775e-03,  3.509032e-02, -3.080155e-02,
            5.865680e-03,  1.233862e-03,  3.722959e-02],
          [ 2.035581e-02,  2.378197e-02,  2.795454e-02, -7.570907e-03,
            3.648659e-02,  2.701020e-04,  1.148746e-02,  2.831605e-02,
           -2.057754e-03,  7.894792e-03, -1.507590e-02],
          [-1.005386e-02,  1.426950e-02, -2.834742e-02,  2.132334e-02,
           -3.536728e-03,  1.192820e-02,  3.378351e-02,  1.532033e-02,
           -1.200696e-03,  2.466874e-02,  2.740833e-02],
          [-4.026927e-02,  7.378395e-03, -3.426066e-02, -2.213074e-02,
           -1.915467e-02,  5.054089e-03,  2.153176e-03, -1.808013e-02,
            1.066474e-02,  2.187818e-02, -6.464388e-03],
          [-1.921231e-02,  2.587272e-02, -2.222288e-02, -2.636188e-02,
            3.819696e-02, -1.353201e-02, -1.327935e-02,  4.561152e-02,
            8.262817e-03,  1.942545e-03, -2.100967e-02]],

         [[ 3.959243e-03,  6.230789e-03, -2.672043e-02, -5.250506e-03,
            1.030059e-02,  7.102325e-04, -1.239532e-02, -1.254627e-03,
            2.035998e-02,  1.176327e-02,  9.043186e-04],
          [-4.106444e-02, -1.552215e-02,  2.067938e-02, -2.189586e-02,
           -1.305415e-02, -4.059351e-02,  3.386937e-02, -2.305217e-02,
            3.405412e-02, -1.704206e-02,  2.594276e-02],
          [-1.220340e-02,  2.111212e-02,  3.709832e-03, -5.121674e-03,
            3.251864e-02,  2.383235e-02,  9.022227e-03, -2.686763e-02,
            6.013601e-03,  3.255713e-02, -2.883088e-03],
          [ 2.457783e-02,  1.264480e-02,  1.123406e-02, -1.929621e-02,
            1.195922e-02,  9.850075e-03,  2.854318e-02, -4.516443e-03,
            3.656081e-03,  3.437943e-02,  1.126060e-02],
          [-2.561250e-02,  3.294843e-03, -2.499143e-02,  3.425286e-02,
            1.873090e-02,  1.260668e-02,  2.843990e-02, -1.866568e-02,
            9.857086e-03,  2.671038e-02, -2.156741e-03],
          [-1.460180e-02,  2.981420e-02,  2.278818e-02, -1.229539e-02,
            1.669940e-02,  8.724544e-03, -1.765651e-02, -1.337302e-02,
            2.847641e-02, -1.519666e-03,  3.327142e-02],
          [-2.551383e-02, -1.946328e-02, -3.644574e-02,  1.740267e-02,
           -2.115390e-02, -3.288765e-02,  2.679159e-02, -2.030977e-02,
           -1.202226e-02, -3.336855e-02,  1.384158e-02],
          [-1.607282e-02,  6.382186e-03, -2.376796e-02,  1.433569e-02,
            2.647382e-02, -1.885640e-02, -2.870341e-02,  1.355845e-02,
           -1.229477e-02, -7.701220e-03, -8.832208e-03],
          [-9.252653e-03,  2.928540e-02, -3.123211e-02,  1.100738e-02,
            3.500228e-05,  1.479343e-03,  3.308471e-02,  1.208246e-02,
           -2.564253e-02, -3.375594e-02, -1.430873e-02],
          [-7.618692e-03, -4.716117e-03, -1.569367e-02,  2.162949e-02,
           -2.683191e-02,  1.912739e-02,  2.656225e-02, -1.441364e-02,
            9.433466e-03,  7.866045e-03, -2.360018e-02],
          [ 1.577526e-02, -3.482380e-02, -3.896895e-02,  2.840180e-02,
           -3.389307e-02,  1.792104e-02, -1.301677e-02, -1.861726e-02,
           -1.687477e-02, -3.628383e-02,  2.696201e-02]],

         [[-3.416225e-02, -3.418282e-03, -2.480401e-02,  1.218397e-02,
            2.364421e-02, -6.719007e-03,  1.057161e-02,  9.516063e-03,
            3.134253e-02, -2.919598e-02,  5.381157e-03],
          [-4.115702e-03, -2.867302e-02, -7.048782e-03,  1.160089e-03,
            2.490120e-02,  1.958656e-02, -3.056091e-02, -9.295766e-03,
           -1.111277e-03,  8.690390e-03,  4.040578e-03],
          [-1.752902e-02,  4.833214e-03, -1.111085e-02, -2.973611e-02,
            1.282737e-02, -3.846995e-03,  1.421572e-02, -4.148451e-03,
            7.728577e-03, -7.469118e-03,  2.110643e-02],
          [-1.431770e-02,  5.634157e-03,  2.438205e-03, -2.749297e-02,
           -1.775539e-02,  2.268620e-02,  1.401395e-02,  1.459140e-02,
            2.209784e-02,  7.043150e-05, -3.121923e-02],
          [ 1.223036e-02,  3.167953e-02, -3.759411e-03,  1.772203e-02,
           -3.182794e-03,  1.041147e-02, -3.461851e-02,  2.441459e-02,
            3.992686e-03, -1.762797e-02, -9.190378e-03],
          [ 2.781282e-02,  2.562693e-03,  2.958446e-02,  2.342401e-02,
           -2.416841e-02,  2.252713e-02, -8.858419e-03,  3.064818e-02,
            1.579591e-02, -8.522523e-03,  8.130073e-03],
          [-1.105709e-02,  3.207129e-02, -1.438344e-02, -2.974319e-02,
            6.180740e-03,  8.444119e-03, -1.120781e-02,  7.053016e-03,
           -8.292639e-03, -1.979853e-02, -2.850966e-02],
          [-1.895218e-02,  3.214472e-02, -2.973708e-02, -3.565557e-02,
            5.122064e-03,  2.650584e-02,  1.654423e-02,  1.870564e-02,
           -2.750522e-02,  3.170931e-02,  2.404808e-02],
          [-1.252116e-02, -1.193279e-02, -3.241771e-03, -1.092846e-02,
           -1.135874e-02, -2.109217e-02, -1.973279e-02, -2.865138e-02,
           -8.028707e-03, -5.320603e-04, -1.506160e-02],
          [-4.109567e-03, -2.564984e-02, -7.786300e-03, -2.861059e-02,
           -1.558195e-02, -1.353635e-02, -8.835608e-04, -1.729599e-02,
            6.724082e-03, -7.891090e-04, -1.658291e-02],
          [-6.371032e-03, -1.902425e-02,  1.916300e-02,  8.598466e-05,
            2.336328e-02, -1.473556e-02, -2.567166e-03, -7.921327e-03,
            3.020124e-02,  3.199829e-02,  2.281820e-02]],

         [[ 2.546026e-02,  1.883913e-02,  8.091502e-03, -3.941359e-02,
           -2.343764e-02,  8.872361e-03, -1.143088e-02, -3.515127e-02,
            1.381097e-03, -4.384989e-02, -4.540879e-02],
          [ 6.758665e-03,  8.467594e-03, -2.490822e-02,  1.921519e-02,
            7.386347e-03, -4.098456e-02, -1.010806e-02,  1.511847e-02,
           -3.702180e-02, -4.127470e-02, -2.474104e-02],
          [-9.261047e-03,  6.925979e-03, -2.243605e-02, -1.371092e-02,
            1.454044e-02, -5.646244e-03, -3.661515e-02, -2.219683e-02,
            3.174831e-02,  4.231340e-04, -6.086348e-03],
          [-3.720656e-02,  2.600644e-02,  2.564548e-02, -1.905980e-02,
           -3.636722e-02,  2.324815e-02, -3.085399e-02, -8.225108e-03,
            1.122317e-02, -1.663375e-02, -1.287518e-02],
          [ 7.966076e-03, -2.581852e-02, -1.097788e-02, -2.132505e-02,
            3.415675e-03, -2.474856e-02, -1.358347e-02,  2.284508e-02,
           -1.091925e-02, -2.818852e-03,  1.025965e-02],
          [-1.257783e-02, -6.299439e-03, -6.783738e-03,  1.123653e-02,
           -1.174183e-02, -3.312013e-02, -5.768504e-03, -2.753332e-02,
           -3.045917e-02, -6.588987e-03, -1.242267e-02],
          [-1.620418e-02, -3.238687e-03,  2.706340e-02, -1.765124e-02,
           -1.610128e-02,  1.970086e-03,  2.352366e-03,  2.068204e-02,
           -5.711639e-03,  2.417360e-02, -6.744687e-03],
          [ 2.153051e-02,  1.393529e-02, -9.021988e-03, -1.582371e-02,
            3.081687e-03, -2.314139e-02, -1.010610e-02,  2.171122e-02,
           -2.359852e-02,  3.376786e-02, -1.234885e-02],
          [-1.061745e-02, -2.281156e-02,  1.617666e-02,  1.499335e-02,
           -1.293381e-02,  5.925543e-03,  8.299059e-04, -9.494877e-03,
            3.052717e-02,  2.888535e-02,  9.310632e-03],
          [-2.857506e-02, -3.912522e-02, -2.406912e-02,  6.169790e-03,
            1.942558e-02, -2.237893e-02,  9.441135e-03,  2.886917e-02,
           -2.474995e-02, -3.100604e-02, -1.887679e-02],
          [-7.347704e-03,  2.354424e-02, -1.834720e-03, -1.505258e-02,
           -8.082846e-03, -1.416876e-04, -7.450987e-04, -1.404368e-02,
            4.835158e-03,  9.836188e-03,  3.030570e-02]],

         [[-9.219864e-03, -2.657356e-02,  1.324727e-02, -5.700037e-03,
            2.726039e-02, -1.085466e-03,  5.131815e-03, -2.485387e-03,
           -1.582154e-02,  1.348637e-02,  3.508169e-02],
          [ 9.930739e-03, -2.041598e-02, -2.542567e-02,  2.123800e-02,
           -2.503499e-02,  5.127537e-03, -3.339682e-02, -8.539934e-03,
           -1.686168e-02,  1.386236e-02, -8.419205e-03],
          [-9.913148e-03,  2.812538e-02,  1.722782e-02,  1.040939e-02,
           -1.431197e-02,  3.256496e-02,  3.529054e-02, -3.370984e-02,
           -5.189388e-03,  3.242266e-02, -2.708288e-02],
          [ 3.349760e-02,  1.415832e-02, -2.866576e-02, -1.378448e-02,
           -1.268937e-02, -2.472292e-02, -7.951964e-03, -2.636786e-02,
           -1.070011e-02, -2.959265e-02,  2.091870e-02],
          [-2.279349e-02, -1.157969e-02, -3.763517e-02, -1.291009e-02,
            9.510603e-03, -3.093766e-02,  3.332068e-02, -2.647502e-02,
           -3.711941e-03, -3.164081e-03,  1.325260e-03],
          [-2.191372e-02,  7.522792e-03, -3.474125e-03, -1.048886e-02,
            3.355261e-02, -2.126611e-02, -3.084487e-02, -3.631723e-02,
           -7.984955e-03, -5.188092e-03,  2.855054e-02],
          [ 1.079501e-02,  9.946017e-03, -1.937992e-02,  3.168326e-02,
           -3.559692e-02,  1.258805e-02, -1.352925e-02, -3.456405e-02,
           -2.764814e-02, -4.706065e-03, -5.115675e-03],
          [ 6.522876e-03, -3.077229e-02,  1.285301e-02, -3.065937e-02,
           -9.331834e-03, -1.849099e-02,  2.759586e-03,  3.567130e-02,
            3.757096e-02,  2.781401e-03, -1.335420e-02],
          [-2.071598e-02, -3.099310e-02, -1.212679e-03, -2.649124e-02,
            3.237564e-02,  3.108576e-02,  3.422014e-02, -1.099712e-02,
           -2.037477e-02,  1.694808e-02,  2.719120e-02],
          [-2.025985e-02, -4.836330e-03, -1.907292e-03,  3.285496e-02,
            1.889319e-02, -9.355185e-03,  3.580417e-02, -7.038615e-03,
            3.934790e-03,  2.933718e-02,  2.573644e-02],
          [ 1.563866e-02,  1.311858e-02,  3.276379e-02, -1.469060e-02,
           -2.627892e-02,  7.563524e-03,  1.440669e-02, -3.556661e-02,
           -3.336406e-02, -3.522947e-02,  1.707273e-02]]],


        [[[-2.788513e-02, -2.491678e-02,  2.130989e-02, -1.188986e-02,
           -1.934675e-02, -3.000951e-02,  3.086987e-03,  3.628289e-04,
            2.880166e-02,  1.356500e-03,  1.993675e-02],
          [ 3.193622e-02, -1.584466e-03,  3.965967e-02,  6.866686e-03,
           -2.212226e-02, -1.941392e-02, -1.222455e-02, -2.990516e-02,
            2.412993e-02,  1.822626e-03,  7.900172e-03],
          [ 2.881482e-02,  2.046383e-02,  1.811797e-02,  3.868097e-02,
            3.736020e-02, -1.539481e-02,  2.088861e-02,  1.136622e-02,
            7.197777e-03, -1.205761e-02,  1.805019e-02],
          [ 6.958174e-03, -3.528490e-02,  2.237653e-02,  1.750606e-02,
            2.718608e-02, -2.141399e-02,  3.757343e-02,  1.200817e-02,
            1.958453e-02,  3.209785e-02,  2.698264e-02],
          [ 1.288179e-02,  3.324075e-02,  2.003357e-02,  9.741396e-03,
            4.590221e-03,  3.842667e-02, -2.287368e-02,  1.454797e-02,
           -1.197195e-02, -3.489114e-02,  1.777064e-03],
          [ 2.434143e-02,  4.795303e-03, -1.814433e-02,  6.170441e-03,
            3.310173e-02,  2.537124e-02, -9.547771e-03, -1.426905e-02,
            8.362534e-03, -4.698864e-02, -5.355138e-03],
          [-7.894544e-04,  2.186558e-02,  2.179993e-02,  8.774719e-03,
            1.538806e-02,  7.588245e-03, -8.312500e-03, -1.381259e-02,
            2.629385e-02, -4.125644e-02,  7.050547e-05],
          [ 2.551303e-02,  3.506699e-02,  2.493083e-02, -9.462913e-03,
           -1.014434e-02, -3.567419e-02, -2.289448e-02,  5.511778e-03,
           -3.509472e-02,  2.928082e-02,  4.801775e-03],
          [ 3.063177e-02, -2.060377e-03,  2.264955e-03, -9.665530e-03,
           -3.314316e-02, -4.105311e-03,  1.973745e-02,  3.998486e-02,
            5.823737e-03, -8.029530e-03,  1.945301e-02],
          [-3.371424e-02,  2.078432e-02, -1.500601e-02,  1.844530e-03,
            1.622195e-02, -3.386126e-02,  3.618368e-02, -1.953089e-05,
           -1.745183e-02, -3.164433e-02,  1.683506e-02],
          [-1.790738e-02, -1.107037e-02, -5.560901e-03, -5.640594e-03,
           -3.796880e-02, -1.116805e-02,  1.720468e-02,  3.739800e-02,
           -8.790942e-03, -1.303934e-02, -1.824099e-02]],

         [[-2.902430e-02, -2.420562e-02,  9.014943e-03, -2.849497e-02,
            3.305990e-02,  3.467918e-02,  4.142237e-02,  4.613120e-02,
           -2.870054e-02, -3.473257e-02,  6.068309e-03],
          [-3.846129e-02, -9.430311e-04, -2.687017e-02, -3.850268e-02,
           -1.801677e-02, -6.511672e-03,  2.726401e-02, -2.651261e-02,
            3.137222e-03,  1.828776e-02, -3.668629e-02],
          [-1.083030e-02, -1.880717e-02, -8.702097e-03, -1.111339e-02,
            1.250085e-02,  2.375516e-02,  2.237038e-02,  3.111456e-02,
           -1.137846e-02, -9.680129e-03, -2.760052e-02],
          [-2.653534e-02, -1.130866e-02,  2.443291e-02,  3.007190e-02,
           -3.650890e-02, -6.342005e-03, -2.033630e-02,  1.531372e-02,
            1.723198e-02, -3.811073e-02, -3.103159e-02],
          [-1.051421e-02,  2.682212e-02,  1.470308e-02,  4.886973e-03,
           -2.222750e-04, -1.624934e-03, -1.904974e-02,  2.540211e-02,
           -7.597951e-03, -2.786312e-03, -3.618456e-03],
          [-2.313057e-02, -8.810912e-03,  2.451234e-02, -4.541843e-04,
            2.345237e-02,  4.652852e-02, -3.323704e-03,  9.527556e-03,
           -3.198848e-02, -3.965161e-02,  2.670747e-03],
          [ 4.321961e-02, -3.139755e-02,  1.017200e-02, -3.189640e-02,
            2.900954e-02, -5.195136e-03,  8.909439e-03,  3.097284e-02,
           -4.295145e-03,  1.441705e-02, -1.584455e-02],
          [-3.261825e-02, -3.295148e-03, -4.698209e-02,  1.282453e-02,
            3.881837e-02, -1.071310e-02,  9.479007e-03, -3.629618e-02,
           -3.467777e-02, -4.726473e-02, -4.140263e-03],
          [-2.739070e-02, -3.775588e-02,  2.924646e-02,  1.340052e-03,
            5.283693e-04,  2.444618e-02,  1.250628e-03, -5.855506e-03,
            2.921240e-03, -4.743740e-02,  2.169036e-02],
          [-4.828131e-03, -2.503580e-02, -3.149455e-02,  1.771235e-02,
            1.244558e-02,  4.042516e-02, -1.264690e-02,  2.044622e-02,
           -2.389416e-02, -3.846437e-02, -4.867321e-03],
          [ 1.118014e-02, -1.213237e-02, -2.989036e-02,  2.130330e-03,
            5.073425e-02,  5.736995e-02,  1.698170e-02, -3.595644e-02,
           -1.105998e-02,  1.490927e-02,  1.943499e-02]],

         [[ 2.660627e-03, -3.210876e-02, -1.222866e-02,  5.052249e-03,
            1.072020e-02, -4.574125e-02,  2.511941e-02, -2.164333e-03,
           -1.134434e-02,  1.089969e-02, -3.129341e-02],
          [-1.425516e-02,  1.336595e-02, -2.655749e-02, -2.373770e-02,
           -2.156842e-02, -1.214842e-02, -2.077451e-02,  2.390081e-02,
           -3.967560e-02, -2.490071e-02,  1.627340e-02],
          [ 3.945420e-02,  4.183812e-02, -3.029970e-02,  4.388603e-02,
            4.576732e-04, -2.154398e-02,  3.602611e-03, -2.644119e-02,
           -2.765316e-02,  2.907687e-02, -2.656613e-02],
          [ 3.489565e-02, -2.182466e-02, -6.511342e-03,  4.000857e-02,
           -2.398768e-02,  4.522525e-03,  1.302463e-02,  1.930866e-02,
            1.657472e-02, -7.892488e-03,  3.525900e-02],
          [-1.401596e-02, -2.355317e-02,  3.448179e-02,  4.200934e-02,
            6.671474e-03, -2.189524e-02,  3.313602e-02,  1.919262e-02,
           -6.267956e-03,  1.907821e-02, -1.996005e-02],
          [ 3.752539e-02,  1.935980e-03, -2.654881e-02,  2.412596e-02,
            6.884389e-03, -2.826766e-02,  1.208992e-02, -2.113840e-02,
            7.928184e-03, -6.658950e-03,  2.857201e-02],
          [-3.911766e-03,  4.082817e-02, -4.520995e-03,  2.689264e-02,
            9.107149e-03,  2.884324e-02, -3.377251e-02, -2.662939e-03,
            7.859942e-03, -3.183925e-02, -3.032542e-02],
          [ 2.633598e-02,  1.687395e-02, -1.523611e-02, -1.798485e-02,
           -1.136127e-02,  1.532068e-02, -2.849240e-02, -2.230861e-02,
           -2.510480e-02,  1.350731e-02, -2.778312e-02],
          [ 2.163055e-02,  1.248901e-02,  2.119235e-02, -2.301942e-02,
           -5.302637e-03, -1.266702e-02, -1.337612e-02, -3.155883e-03,
            1.111449e-02, -3.864117e-02, -7.337895e-03],
          [-2.418838e-02, -3.200360e-02, -1.673880e-02,  1.723828e-02,
            2.273309e-02,  2.732255e-02,  1.027888e-02,  1.617238e-02,
            5.162204e-05, -4.225838e-02, -4.529562e-03],
          [-1.115281e-03, -1.030256e-02, -2.237863e-02,  1.406942e-02,
            3.011797e-02, -1.968866e-02,  1.936867e-02, -1.287854e-02,
            1.555390e-02, -7.765338e-03,  2.324192e-02]],

         [[-3.215410e-02,  3.372689e-02, -1.598480e-02, -1.058668e-02,
            4.226679e-02,  1.619850e-03,  1.652752e-02, -3.555050e-02,
           -3.965776e-02,  3.434292e-02, -1.449067e-02],
          [ 1.766590e-02, -2.759790e-02,  9.835188e-03,  2.980387e-02,
           -3.804091e-02, -2.761159e-02,  2.304406e-02, -2.173214e-02,
           -3.759491e-02,  1.513238e-02,  1.847515e-02],
          [-1.353313e-03, -2.975750e-02, -2.423682e-02, -4.270099e-03,
           -1.690600e-02,  7.166134e-03, -6.034895e-03,  2.605760e-02,
           -2.392223e-02,  1.498766e-02,  1.997719e-02],
          [-2.766562e-02, -3.343344e-02,  3.010968e-03,  2.679148e-02,
            1.217210e-02,  2.491221e-02,  3.365795e-02,  1.300051e-02,
           -8.810442e-03, -1.870051e-03, -1.548660e-03],
          [ 7.032810e-03,  3.514986e-02, -1.293961e-02,  7.317625e-03,
           -7.728311e-03, -4.574924e-04, -3.239406e-02, -2.697760e-03,
           -3.198019e-02, -2.891495e-02, -1.439371e-02],
          [ 3.827883e-02, -9.066639e-03,  3.622496e-02,  1.030766e-02,
            4.535085e-02,  2.823528e-02, -2.999531e-02, -4.568975e-02,
           -2.796219e-02, -2.154609e-02,  3.933982e-03],
          [ 1.148476e-02, -2.821662e-02, -5.804001e-03,  9.997045e-03,
           -2.452351e-02,  3.799746e-02,  2.735605e-02, -4.006713e-02,
           -4.621436e-02,  3.447358e-02,  3.303575e-03],
          [ 2.276821e-03,  3.674849e-02, -1.964718e-02, -1.695508e-02,
            2.047495e-02, -8.059841e-03,  8.837610e-03, -1.976376e-02,
           -3.421732e-03,  7.155291e-03,  4.075465e-02],
          [ 2.918736e-02,  1.848954e-02, -8.987420e-03, -2.596305e-02,
           -2.042659e-02, -8.349911e-03,  2.600593e-02,  2.211802e-02,
            3.506039e-02, -1.542953e-02,  2.261622e-02],
          [-1.642651e-02, -2.347964e-02, -4.075239e-02, -3.138048e-02,
           -3.644229e-02,  3.979701e-03, -3.298386e-03,  1.805000e-02,
            2.967175e-02,  2.003548e-02, -3.081351e-02],
          [-3.339939e-02,  1.911366e-02,  4.492258e-03,  3.574190e-02,
            1.014306e-02,  5.219075e-03,  3.829842e-02,  3.173033e-02,
            7.245961e-03, -1.594479e-02,  1.702682e-02]],

         [[-9.963050e-03, -4.993306e-02,  2.089635e-02, -4.011623e-02,
            2.528128e-02, -3.180803e-02,  2.531865e-02, -4.892714e-02,
           -8.340153e-03,  2.005040e-02,  1.124054e-02],
          [ 4.975364e-03, -3.342324e-02, -3.640248e-02,  3.109180e-03,
           -3.971554e-02,  1.377814e-02, -2.169028e-02, -2.566935e-02,
           -4.434114e-03,  2.775724e-02, -1.224032e-02],
          [ 1.740960e-02, -1.106234e-02, -4.334643e-02,  1.578226e-02,
           -1.568516e-02,  2.407901e-02, -1.003523e-02,  4.848981e-03,
            4.507357e-02,  2.941061e-03, -2.133116e-02],
          [-6.963622e-03,  6.475147e-03, -3.692169e-03, -3.347310e-02,
           -2.168086e-02,  1.811998e-02,  2.062854e-02, -8.132800e-03,
           -5.086626e-03, -6.360509e-03, -4.353641e-02],
          [-1.490166e-02,  5.140085e-03, -3.780530e-02,  1.224955e-02,
            1.282325e-02,  1.981162e-02, -6.417625e-03, -2.117206e-02,
            4.970129e-02, -1.559309e-04, -4.873442e-02],
          [ 2.044349e-02, -6.794825e-03,  1.358871e-02, -1.117998e-04,
            3.673150e-02,  1.780678e-02, -1.352969e-02,  1.771075e-02,
           -1.190381e-02,  1.274335e-02, -5.962404e-02],
          [ 4.192838e-02,  1.933745e-02,  1.396769e-02, -2.339500e-02,
            2.173814e-02,  1.480018e-02,  5.353728e-03, -2.272188e-02,
           -2.548818e-02, -2.595482e-02, -4.879466e-02],
          [-2.786225e-02,  2.914802e-02,  1.637754e-02,  4.449942e-02,
            1.174712e-02, -5.247158e-03, -2.985786e-02, -1.300853e-04,
            1.343675e-03, -2.898770e-02, -4.974701e-02],
          [-1.075463e-02,  2.014051e-02, -8.142439e-03, -3.774441e-02,
           -3.355789e-02,  7.979365e-03,  2.100253e-02,  7.113490e-03,
           -3.277199e-02, -1.659832e-02, -1.705392e-02],
          [-9.825417e-03,  1.080649e-02, -3.254199e-02, -2.729432e-02,
           -5.917523e-02, -4.476155e-02,  2.348056e-02,  2.251699e-03,
            4.038565e-03,  2.702009e-02,  7.692921e-03],
          [ 3.148213e-02,  2.838714e-02,  2.494014e-02, -1.474172e-02,
           -2.386544e-02,  3.449564e-03, -6.804257e-03,  5.022393e-03,
            2.617497e-02,  3.259273e-02, -4.857361e-02]],

         [[-1.836021e-02,  7.380166e-03,  3.561651e-02, -2.398606e-02,
            7.118030e-03, -1.076124e-02, -9.910325e-03,  3.529420e-02,
            2.135885e-02, -3.264160e-02, -6.279968e-03],
          [ 1.631122e-02, -2.771795e-03,  7.386835e-03, -1.696148e-02,
           -2.895371e-02,  1.155083e-02, -2.100316e-02,  2.228578e-02,
           -3.591563e-02, -3.008410e-02, -2.813923e-03],
          [-2.285331e-02, -3.453919e-02,  1.300070e-02, -4.594718e-03,
            3.457481e-03, -3.584020e-02,  1.619400e-02,  2.659071e-02,
           -1.794104e-03,  6.655311e-03,  4.228081e-05],
          [ 3.301172e-02,  1.295830e-03,  1.819904e-02,  1.864027e-02,
           -4.507609e-03, -2.875757e-02,  1.099234e-02, -1.614739e-02,
           -7.011266e-03, -1.138353e-03, -3.349296e-02],
          [-8.707187e-03,  2.186220e-02,  2.471229e-02,  2.568296e-02,
           -6.207078e-03,  9.851209e-03, -1.735601e-02,  3.177254e-02,
           -2.998621e-02, -3.497511e-02,  2.713199e-02],
          [-2.103350e-02, -1.218320e-04, -5.879221e-03, -5.675167e-03,
            3.325976e-02, -3.083192e-02, -3.580562e-02,  1.346584e-02,
           -5.860907e-03, -8.924848e-06, -2.680350e-02],
          [ 6.640977e-03, -1.701152e-02, -1.040448e-02, -1.716789e-02,
           -2.807590e-02, -3.714629e-02, -2.798722e-02,  1.739671e-02,
            5.096322e-04, -1.378644e-02, -2.137077e-02],
          [ 3.568077e-04, -2.087617e-02, -3.889680e-03, -2.989129e-02,
            3.704489e-02, -1.542297e-02,  5.740036e-03, -5.492513e-03,
           -3.134932e-02, -3.683271e-02,  3.083831e-02],
          [-5.608219e-03,  9.894911e-03, -4.431205e-02, -3.169787e-02,
            2.302647e-02, -3.715561e-02, -2.360035e-02, -4.422423e-03,
           -2.667494e-02, -2.721693e-02, -3.338482e-02],
          [ 2.178123e-02, -4.270867e-03,  2.381289e-03, -3.462151e-02,
            2.527416e-02,  1.311806e-03, -1.970789e-03, -6.594137e-03,
            2.637756e-02,  3.470500e-02,  1.693221e-02],
          [-3.757019e-02,  3.304421e-03,  6.884185e-03,  3.642566e-03,
            8.973801e-03,  2.088487e-02, -6.932931e-03, -2.231844e-02,
           -9.548443e-03, -3.922360e-02,  9.596173e-03]]],


        [[[-5.513530e-03,  1.371053e-02,  4.250716e-02,  5.358996e-03,
           -4.654074e-02,  4.734704e-03, -2.081889e-02, -4.360334e-03,
           -9.518985e-03, -3.650055e-02, -3.390367e-02],
          [ 1.094360e-03,  3.030225e-02, -5.529633e-03,  2.180040e-02,
           -1.565567e-02,  2.351366e-03,  1.500481e-02, -2.634556e-02,
           -3.690333e-02,  1.471205e-02,  1.823093e-02],
          [-1.500989e-03, -1.359351e-02,  4.185005e-02,  3.168254e-02,
           -2.874603e-02, -2.356743e-02,  3.426385e-02,  2.368188e-02,
           -2.003396e-02, -5.723369e-03, -1.362922e-02],
          [ 2.086529e-03, -8.608807e-03,  2.938775e-02, -1.106823e-02,
            1.217701e-02, -5.723796e-03, -1.221476e-02, -3.877844e-02,
           -1.272542e-02, -1.693563e-02, -3.119291e-02],
          [-1.871334e-02, -2.870638e-02,  3.878089e-02, -3.134949e-02,
           -1.463226e-02,  2.590048e-02,  7.928390e-03, -3.495467e-02,
            5.129322e-03, -8.919472e-03, -8.962205e-03],
          [ 1.896853e-02,  7.972364e-03, -1.614762e-02, -4.926215e-03,
            2.293040e-03,  3.420425e-03,  2.658135e-03,  1.312470e-02,
           -1.481562e-02, -9.127322e-03,  2.791072e-02],
          [-2.113303e-03,  3.615426e-02, -2.593591e-02, -2.363051e-02,
            6.274441e-03,  1.889221e-02,  1.893452e-02,  6.059814e-03,
           -3.593184e-02,  7.728257e-03, -2.632361e-02],
          [-1.193630e-02, -3.142515e-02,  2.514417e-02,  1.120113e-02,
           -2.477110e-03,  2.305650e-03,  1.417162e-02, -2.813927e-02,
            4.533860e-03,  1.781186e-02, -1.933627e-02],
          [-6.119472e-03,  6.222480e-03,  8.032703e-03, -7.790671e-03,
           -7.033641e-03, -3.765929e-02, -2.112316e-02,  5.299066e-03,
            2.342763e-02,  7.647811e-03, -2.121633e-02],
          [ 3.480868e-02, -2.865323e-02, -1.661410e-02,  1.586600e-02,
           -1.757863e-03,  2.995679e-02,  1.859850e-02, -1.739935e-03,
           -4.249697e-02,  8.584816e-03, -2.044720e-02],
          [ 3.719569e-03,  2.877449e-02, -8.490645e-03,  2.248840e-02,
           -2.128032e-02, -1.218127e-02,  3.090007e-02,  3.465734e-02,
            3.618138e-02,  1.592052e-02, -1.684373e-02]],

         [[ 2.528816e-02,  4.705214e-02,  2.237780e-02, -1.468548e-02,
           -1.554312e-02, -1.537601e-02,  8.041102e-03, -6.883464e-03,
           -4.306996e-03, -1.820329e-02,  9.350001e-03],
          [ 1.186555e-02, -2.004007e-02,  2.732887e-02, -2.508480e-02,
           -3.339311e-02, -7.480460e-03, -8.469006e-03, -3.917604e-02,
            3.236144e-02, -2.714962e-02,  1.169445e-02],
          [ 2.108630e-02, -6.968836e-03,  2.855097e-02,  5.630685e-03,
           -1.194704e-02, -8.193462e-03, -4.863725e-03, -3.743138e-03,
            4.705328e-03, -2.659640e-03,  3.388745e-02],
          [ 2.850582e-02,  3.572044e-02, -1.858358e-02,  2.356592e-02,
            2.106386e-02, -2.056947e-02, -6.126150e-03,  4.341363e-03,
           -1.207000e-02,  3.199213e-02,  2.433187e-02],
          [-6.608523e-03, -5.221421e-03,  3.184389e-02,  2.482671e-02,
           -5.670133e-03, -1.339626e-02, -3.251496e-02, -2.845312e-02,
            2.211781e-03,  6.283662e-03, -2.391655e-02],
          [ 4.467940e-02,  7.960210e-03, -1.360209e-02, -1.557364e-02,
           -2.290103e-02, -3.310490e-02, -3.500907e-04, -1.550617e-02,
            1.472572e-02, -2.244688e-03, -1.892664e-02],
          [ 4.022042e-02, -2.181327e-02,  1.237686e-02, -7.631253e-03,
           -4.757436e-03,  1.897692e-02,  4.268502e-04,  1.242231e-02,
            6.874407e-03,  2.178991e-02,  5.567969e-03],
          [-9.537313e-03,  1.561759e-02,  4.331733e-02, -1.809171e-02,
            1.559209e-02, -1.691834e-02,  8.436460e-03,  3.772857e-02,
           -8.323986e-03,  3.305326e-02, -6.982583e-03],
          [ 1.406158e-02, -2.287743e-02, -7.899265e-03,  1.379911e-02,
           -3.418834e-02, -2.671679e-02, -1.760746e-02,  3.525444e-02,
            2.334535e-02, -5.539574e-04,  3.042910e-02],
          [ 1.119029e-02, -3.505146e-02, -3.044615e-02, -3.964175e-02,
            1.524206e-03,  2.231179e-03, -1.939134e-02,  1.172694e-02,
           -2.910709e-02, -1.651312e-02,  2.299131e-02],
          [-8.260377e-03, -2.755060e-02,  2.852399e-03, -5.468959e-03,
            1.236889e-02,  3.117969e-03, -1.883959e-02,  2.562922e-02,
           -2.787479e-02,  2.140022e-02, -1.992613e-02]],

         [[ 2.915582e-02,  1.816198e-02,  3.196859e-02, -2.670221e-02,
           -1.972685e-03, -7.001098e-03,  3.577786e-02,  3.181705e-02,
           -2.385719e-02,  3.163874e-02,  1.679148e-02],
          [ 1.666300e-02,  3.557628e-02, -1.252576e-02, -1.756333e-02,
           -1.532747e-02, -2.358424e-02, -3.038717e-02,  1.470428e-02,
           -1.089478e-03,  7.612586e-03, -1.950079e-02],
          [-2.839842e-02,  8.046529e-03, -2.324910e-02, -3.354481e-02,
           -2.612108e-02,  2.733525e-02, -9.340565e-04, -8.056427e-03,
            6.428768e-03, -1.866004e-03, -4.379319e-02],
          [-1.462425e-02,  3.418214e-02, -3.667254e-03,  1.232857e-02,
           -2.152331e-02,  1.184838e-02,  7.468545e-03, -2.161662e-02,
            3.035886e-02,  2.007295e-02, -4.120920e-03],
          [ 2.814334e-02,  2.233078e-02,  4.077321e-02,  2.119518e-02,
            1.601864e-02,  1.213111e-02, -2.718683e-02,  2.692208e-02,
           -2.732159e-02, -6.623191e-03, -6.464180e-03],
          [ 1.129830e-02,  3.401095e-02,  4.311736e-02,  2.787355e-02,
           -3.049195e-02, -1.132861e-02, -2.458042e-02,  1.609604e-02,
           -5.327818e-03,  2.495676e-02, -8.485099e-03],
          [ 2.508797e-03,  9.896658e-03, -3.622578e-03,  2.920900e-02,
            1.387789e-02, -2.002246e-02, -2.246732e-02, -2.622632e-02,
           -1.605521e-02, -3.211030e-02, -2.409357e-02],
          [-1.966243e-02,  2.228880e-02,  3.659689e-02, -7.814860e-03,
           -2.205130e-02,  2.506792e-02,  2.320930e-02, -5.100544e-03,
           -4.027022e-04,  2.254764e-02, -1.273536e-02],
          [ 9.211000e-03,  1.879863e-03,  2.173566e-02,  2.106002e-02,
            1.424738e-02,  1.072587e-03, -5.719380e-03,  1.254044e-02,
            2.682113e-02,  2.402035e-02, -3.009499e-02],
          [-5.542774e-03, -3.268351e-02, -2.131380e-02, -3.575998e-02,
            2.843865e-02, -1.202311e-02,  2.032527e-02,  2.066056e-02,
            1.736019e-02,  8.263692e-03,  1.325075e-02],
          [-3.989730e-02,  1.602236e-02,  3.330187e-02, -3.799089e-02,
           -2.412652e-02,  3.662061e-02, -1.559458e-02,  1.012282e-02,
            8.493437e-03,  2.156332e-02, -1.007849e-02]],

         [[ 3.284053e-02,  3.175458e-02, -1.077271e-02, -1.236627e-02,
            3.008102e-02, -3.005709e-02,  1.004287e-02, -2.652058e-02,
           -2.289055e-02, -1.604326e-02, -3.892600e-03],
          [ 3.166009e-02,  6.568760e-03, -1.752355e-02,  4.943006e-03,
            1.419351e-02, -2.709228e-02,  2.445747e-02, -3.026083e-02,
           -3.109372e-02,  1.510596e-02, -2.609969e-02],
          [-6.146493e-03,  3.317433e-02, -2.492903e-02, -2.782269e-02,
            1.719212e-02, -1.068592e-02, -3.574666e-02, -4.860215e-03,
            1.690737e-02,  2.285957e-02,  2.062551e-02],
          [-2.683177e-02, -3.133578e-04,  1.531831e-02,  4.412458e-03,
           -1.748520e-02,  1.567133e-02, -2.879518e-02,  7.668813e-03,
            1.764037e-02,  2.972453e-02, -3.694691e-02],
          [-1.010793e-02,  6.044281e-03,  5.861711e-03, -1.567123e-02,
            1.759431e-02, -3.026909e-02, -1.932032e-02,  3.245214e-02,
            3.620952e-02, -3.095948e-02, -2.398228e-02],
          [-2.923493e-02, -1.750514e-02,  1.311318e-03,  2.279270e-02,
            7.984559e-03,  2.817888e-02,  2.301008e-02,  1.258466e-02,
            3.647717e-02, -1.190476e-02, -3.644203e-02],
          [-2.117352e-02, -2.982016e-02,  4.464561e-04, -1.860658e-02,
            3.356770e-02, -7.851814e-03, -1.279336e-02, -7.456420e-03,
            2.893785e-02, -3.453988e-02,  2.579625e-02],
          [-3.913748e-02,  3.170117e-02, -2.169227e-02, -2.059468e-02,
           -2.386761e-02,  3.273221e-02,  1.955322e-02, -9.867086e-03,
           -8.860759e-03,  1.542412e-02, -1.438919e-02],
          [ 4.430291e-03,  3.410764e-02,  3.321727e-02,  1.026154e-02,
            1.628016e-03, -1.446464e-02, -2.688055e-02, -3.968413e-02,
           -9.634269e-03, -4.091871e-02, -2.234990e-02],
          [ 8.112737e-03,  1.925704e-02,  1.744471e-02,  6.721713e-03,
            2.028991e-02, -2.434092e-02,  3.873400e-02, -3.621382e-02,
            2.488763e-02,  4.945111e-03, -3.883081e-02],
          [ 6.090874e-03,  7.887970e-03,  1.920804e-02,  2.241327e-02,
            1.136420e-02,  9.680855e-04, -4.228022e-03, -1.650408e-02,
            3.755240e-03, -1.713932e-02,  6.447569e-04]],

         [[-2.201439e-02, -3.257103e-02, -2.745487e-02,  3.402521e-02,
            2.642467e-02,  1.887455e-02, -2.313395e-02, -1.523659e-02,
           -1.371610e-02, -1.277587e-02, -2.431038e-03],
          [ 7.973077e-03, -4.452586e-02, -1.263665e-04,  5.936033e-02,
            7.909253e-03,  8.276794e-03,  2.502819e-02, -2.547348e-02,
           -4.299985e-02, -1.311791e-02, -7.308449e-03],
          [ 1.517357e-02, -2.531133e-02,  1.002085e-02,  3.853329e-02,
            3.808913e-02,  1.507304e-03, -1.723347e-03,  9.796524e-03,
           -7.470415e-03,  1.432878e-02,  3.409100e-02],
          [ 7.096563e-03, -6.910510e-03,  1.937058e-02,  2.491541e-02,
           -2.691907e-02, -2.617064e-02,  1.014277e-02, -1.615303e-02,
           -2.439225e-02, -2.551451e-02, -1.391277e-02],
          [-3.403644e-03, -5.408550e-03,  2.848846e-02,  2.462796e-02,
           -1.993310e-02,  4.114455e-02, -3.622837e-02, -1.281158e-04,
           -6.002488e-03, -3.941047e-03, -2.958645e-02],
          [ 1.790804e-03, -3.633182e-03, -9.169066e-03,  2.664247e-02,
           -1.426499e-02, -2.373733e-02, -4.052387e-03,  2.546028e-02,
            2.759095e-02, -6.943654e-03,  2.206967e-02],
          [ 2.222873e-02,  6.493504e-03, -1.389579e-02, -1.436398e-02,
            4.069751e-02, -9.594608e-03, -2.676522e-02,  1.656890e-02,
            7.205547e-03, -1.496420e-03, -3.387702e-02],
          [ 3.817695e-02, -5.404085e-03,  4.138841e-02,  4.838833e-03,
            3.469979e-02,  9.494831e-03, -1.253682e-02, -1.531478e-02,
           -3.049830e-02,  7.148977e-03, -3.980226e-02],
          [-2.337735e-03,  1.492476e-02, -1.781436e-02,  2.909772e-03,
           -3.024278e-03, -1.764305e-02,  2.992154e-02, -1.548696e-02,
            1.788967e-02, -3.901694e-02, -1.975794e-02],
          [-1.924509e-02,  1.239160e-02,  1.765547e-03,  2.522180e-02,
            3.147221e-02,  3.013030e-03, -5.284026e-03,  1.585831e-02,
           -2.217419e-03,  1.107052e-02,  1.282263e-02],
          [ 6.926067e-03,  5.614987e-02, -9.864092e-03,  3.252093e-02,
            3.033313e-02,  1.510617e-02, -5.042434e-02,  3.018666e-02,
           -1.470733e-02,  1.766436e-02, -4.823060e-02]],

         [[-5.815605e-03, -4.564976e-04, -8.240103e-03,  4.426410e-03,
            1.780143e-02, -2.828414e-02,  8.984778e-03, -2.769938e-02,
           -1.886126e-02,  1.406052e-03, -3.663164e-02],
          [-1.725405e-02,  1.935947e-02, -2.644512e-03,  1.281385e-02,
            1.284489e-03, -2.305138e-02,  4.730808e-03,  4.647843e-03,
           -3.376704e-02, -2.744344e-02,  2.940265e-02],
          [-9.449618e-03,  1.329136e-02, -1.680980e-03,  2.925164e-02,
            1.373017e-02,  4.682797e-03, -2.696033e-02,  2.452206e-02,
            3.435902e-02, -1.901411e-02, -2.425839e-02],
          [ 1.942264e-02,  2.072923e-03, -7.759301e-03, -2.131990e-03,
           -2.473288e-02,  2.876069e-02,  2.333042e-02,  7.537479e-03,
            2.448222e-02, -2.162716e-02,  2.793312e-02],
          [ 5.242424e-03, -1.132078e-03,  1.095205e-02,  2.982633e-02,
            2.113697e-02, -2.715493e-02,  3.246209e-02, -1.305073e-02,
           -3.387261e-02,  3.366921e-02, -2.804183e-02],
          [ 3.466916e-02,  2.749334e-02,  3.068039e-02,  2.968145e-02,
            2.616171e-02,  1.245931e-02,  1.084924e-02,  5.101501e-03,
            2.503792e-02, -1.252452e-02, -1.533596e-02],
          [-2.661322e-02, -2.896433e-03,  3.060612e-02, -2.900535e-02,
           -1.987033e-02,  1.633439e-02,  1.665898e-02, -3.391528e-02,
            6.015493e-03, -1.579822e-03,  6.449858e-04],
          [-4.913040e-03, -1.423760e-02, -1.548691e-02,  6.076210e-03,
           -2.283978e-02, -1.706117e-02,  1.812596e-02, -4.591441e-03,
            9.636675e-04, -2.134584e-02,  9.176192e-03],
          [ 7.529859e-03, -1.362664e-02,  2.979479e-02, -3.193825e-02,
           -2.511011e-02,  3.345210e-02, -1.704396e-02, -2.349737e-03,
           -7.398654e-03,  1.502727e-02,  2.737813e-02],
          [ 2.926026e-02,  1.521105e-03, -3.398293e-02,  2.579969e-02,
           -2.834842e-02,  1.856103e-03,  1.328800e-03,  1.405834e-02,
           -3.551413e-02, -2.366297e-02, -1.763655e-02],
          [ 3.239794e-02, -2.294276e-02, -3.568257e-02,  3.495901e-03,
           -1.542761e-02, -8.900570e-03, -8.055978e-03,  2.716324e-02,
            1.136086e-03,  2.568995e-02, -3.414960e-02]]],


        [[[-3.543038e-02, -8.025639e-03,  9.001852e-03, -2.786152e-02,
            4.272248e-02, -1.009374e-02, -2.985408e-03,  4.312409e-02,
            3.413024e-02,  1.423851e-03,  3.122218e-02],
          [ 2.215155e-02, -1.407881e-02, -2.761041e-02, -2.627318e-02,
            2.023397e-02,  1.547095e-02,  2.133328e-02, -8.812187e-03,
            4.732883e-03,  1.464202e-02, -2.411273e-02],
          [-1.136283e-02,  8.438217e-03, -2.899290e-03, -2.635249e-02,
           -4.130707e-02, -4.096761e-02, -3.154804e-02,  3.620824e-02,
            1.868862e-02,  5.971878e-03, -2.538483e-02],
          [-2.263973e-02,  2.574735e-02,  3.009654e-02, -2.330763e-02,
           -5.948748e-04,  2.067334e-02,  6.109133e-03, -2.801169e-02,
           -1.533007e-02,  2.303935e-02, -2.085055e-02],
          [ 1.780414e-02, -3.539506e-02, -2.149152e-02,  2.112955e-02,
           -3.663087e-03, -2.638544e-03, -2.341116e-02,  1.283204e-03,
            1.189805e-02,  2.051880e-02, -3.662942e-02],
          [-2.559992e-02,  2.059247e-02,  2.077996e-02,  3.116136e-02,
            3.540504e-03,  1.345043e-02, -1.473260e-02, -2.166613e-02,
            2.284356e-02, -1.263933e-02,  3.821593e-02],
          [-1.711287e-02, -9.687429e-03, -2.174570e-02, -2.293008e-03,
            1.813115e-02, -8.802745e-03, -2.842757e-02, -3.067057e-02,
            1.471092e-03, -2.360070e-02,  3.144840e-02],
          [ 1.266146e-02, -3.185470e-02, -3.475877e-02, -1.711592e-02,
           -2.273188e-02,  7.509228e-03, -2.817229e-02, -1.672185e-02,
           -2.696428e-02,  6.981475e-03,  1.069940e-02],
          [ 3.517705e-02,  3.197740e-02, -1.420556e-02,  6.729683e-04,
            3.123916e-02,  1.184775e-02, -1.767106e-02, -3.900827e-02,
            2.770111e-02, -9.617921e-03,  9.923868e-03],
          [-9.243557e-03, -2.778323e-02,  4.100197e-02, -1.839017e-02,
            4.118821e-03,  2.603514e-02, -2.781577e-02, -1.659693e-02,
            3.160418e-02, -4.548035e-03, -1.589392e-02],
          [ 2.080931e-02, -1.606864e-02,  5.078531e-02,  1.888278e-02,
           -1.763998e-02,  2.563579e-02, -1.595743e-02,  2.217170e-02,
           -8.954669e-03,  8.526645e-03,  1.194867e-02]],

         [[ 3.787899e-02,  5.139739e-02,  1.378695e-02, -2.446214e-02,
           -2.664877e-02, -2.081475e-02,  5.989878e-05,  9.555118e-03,
            2.105120e-02, -3.092697e-02, -3.437803e-02],
          [ 2.979181e-02,  5.046059e-02,  3.320153e-02,  2.373611e-02,
            2.264037e-02, -1.605623e-03, -1.902116e-02,  3.743006e-03,
           -4.093276e-02, -2.117781e-02,  3.664081e-04],
          [-1.409820e-02,  2.222180e-02,  4.036257e-02,  8.931533e-03,
            2.142927e-02, -2.113142e-03, -2.566667e-02, -1.790153e-02,
            1.576393e-02,  2.515903e-02,  2.823742e-02],
          [ 2.788807e-02, -2.275750e-03,  3.980041e-02, -1.034008e-02,
            3.799399e-02,  2.443756e-03, -4.087526e-02, -5.574061e-03,
           -1.442792e-03, -8.163959e-03,  7.710663e-03],
          [ 1.885558e-02, -2.218492e-02,  4.412112e-02,  1.267457e-02,
            2.065681e-02,  1.616492e-02,  1.410153e-02, -1.929982e-02,
           -3.283209e-03, -1.670218e-02, -3.266271e-02],
          [-1.033801e-02, -1.172379e-02,  2.100313e-02,  1.427650e-03,
            1.989640e-02, -3.735383e-02,  1.170357e-02, -4.112756e-02,
            2.736448e-02, -3.260856e-02,  1.705255e-02],
          [-2.811853e-02,  2.153608e-02, -3.704069e-02,  2.826380e-02,
           -1.948490e-02, -4.023089e-02,  5.833553e-03,  2.048663e-02,
           -1.105194e-02,  2.373965e-02, -3.921081e-03],
          [-2.657253e-04, -4.240530e-02, -9.352684e-04, -5.096484e-03,
           -2.243995e-02,  2.151035e-02, -2.437177e-02,  2.039801e-02,
           -8.160155e-03, -2.652808e-02, -3.131635e-02],
          [-1.129398e-02,  7.282104e-05,  1.770252e-02, -3.697253e-02,
           -4.377715e-02, -2.565441e-02,  3.578315e-03, -4.571598e-02,
            2.545240e-02, -2.639828e-02, -3.454309e-02],
          [-2.301786e-02, -5.100945e-02, -5.053166e-02,  6.398051e-03,
           -5.108922e-02, -8.555761e-03,  9.443008e-03,  2.380294e-02,
           -2.141956e-02, -2.365685e-02, -2.929947e-02],
          [-1.330836e-02, -4.659262e-02, -4.507032e-02, -3.376165e-02,
           -5.175792e-02, -1.701994e-02, -7.933932e-03,  2.105630e-02,
           -2.478362e-02,  5.904038e-03, -7.827810e-04]],

         [[-3.392133e-02,  3.438596e-02,  2.537363e-02,  3.028816e-02,
           -6.408598e-03, -8.734436e-03,  2.012200e-02,  1.521521e-02,
           -8.993106e-03,  7.215005e-03,  2.271434e-02],
          [-2.223729e-02, -2.677018e-02,  4.623624e-02,  1.764207e-02,
            2.065971e-02,  1.612021e-02, -3.422301e-02,  1.586919e-02,
            6.428224e-03, -1.766012e-02, -1.871627e-02],
          [-3.957524e-02,  1.370284e-02, -1.091024e-02,  2.692957e-02,
            1.340361e-02, -5.027195e-03,  2.878344e-03, -3.635505e-02,
           -1.614267e-02,  3.267158e-02,  2.730910e-02],
          [-1.907064e-02,  3.170247e-02, -1.355613e-02,  1.601046e-02,
            2.592076e-02,  3.010930e-02,  1.465976e-02,  2.362028e-02,
           -2.208340e-02,  3.292629e-02, -3.310172e-02],
          [ 5.552985e-03, -1.618551e-02, -4.216892e-04, -3.288695e-03,
           -1.228273e-02, -2.939949e-02,  2.363427e-02,  1.293695e-02,
           -1.469083e-02,  1.211732e-02, -2.542914e-02],
          [ 9.353068e-03,  6.453020e-03,  2.371471e-02, -2.364964e-02,
            1.880600e-02, -2.906471e-02, -3.379721e-02,  3.279360e-02,
            1.247279e-02,  1.140265e-02,  2.902072e-02],
          [-2.193281e-02, -3.204266e-02,  8.827654e-03, -1.807552e-02,
            1.705780e-02, -2.028774e-02, -3.080311e-02,  2.309526e-02,
            2.482093e-02, -1.310279e-02, -1.823934e-03],
          [-2.924905e-02, -1.233220e-02, -2.429921e-02, -2.380836e-02,
            1.053035e-02, -7.849165e-03,  4.069817e-02, -6.344277e-03,
           -1.775965e-02,  2.932509e-02,  2.297463e-02],
          [ 1.486493e-02, -3.267496e-02, -6.610018e-03, -1.725668e-02,
           -1.614001e-05,  1.747880e-02,  2.705279e-02, -4.582111e-04,
           -1.281630e-02,  1.377070e-05,  1.303377e-02],
          [-2.417804e-02, -5.802159e-03,  1.295832e-02, -3.911280e-03,
            1.705772e-02,  2.040822e-02, -1.522380e-02,  2.529390e-02,
            6.797208e-03, -1.362371e-03,  2.026279e-03],
          [ 1.878216e-02, -1.916767e-02,  1.959460e-02, -2.564388e-02,
            8.436146e-03, -1.135507e-02,  1.379259e-02, -1.155971e-02,
           -3.722111e-02,  3.140947e-02,  1.337457e-02]],

         [[ 1.478736e-02, -2.073829e-03, -3.246405e-02,  3.401672e-02,
            1.256724e-02,  7.464383e-03,  3.543870e-02,  1.782752e-02,
           -1.490013e-02, -1.351448e-02, -2.476757e-02],
          [-3.752019e-02,  2.659271e-04, -2.985333e-02, -1.482406e-02,
            2.908950e-02,  2.032026e-02, -6.319062e-03, -1.084626e-02,
           -1.793621e-02,  8.168443e-03,  1.152705e-02],
          [-1.086577e-02, -1.443367e-02,  2.515215e-02, -2.424686e-02,
            1.849722e-02, -1.744474e-02, -2.648918e-02,  3.469753e-02,
            3.471720e-02, -2.020962e-02, -1.441380e-02],
          [ 2.581532e-02, -1.785159e-02,  2.457559e-02,  8.374118e-03,
           -1.961189e-02, -9.300833e-03, -2.456273e-02,  3.359078e-02,
           -1.134988e-02,  1.416713e-02,  2.775532e-02],
          [-6.738020e-04, -2.452134e-02, -4.446612e-03,  3.662335e-03,
            1.574016e-02, -1.351020e-02, -1.294247e-02,  2.531657e-02,
           -3.865406e-02,  5.989512e-03,  7.430714e-03],
          [ 2.858073e-02, -1.147613e-02,  2.480417e-02, -1.804825e-03,
           -6.002007e-03, -1.541617e-02, -2.997594e-02,  8.881538e-03,
           -3.161004e-02,  7.602505e-03, -3.651182e-03],
          [-3.361858e-02, -4.392262e-03,  3.076091e-02, -2.123031e-02,
            9.288128e-03,  4.756483e-03,  9.871229e-03,  2.192419e-02,
            3.061346e-02, -1.955184e-02,  7.490223e-03],
          [ 1.268976e-02,  2.318344e-02, -6.112313e-03,  8.745581e-03,
            1.732046e-02, -2.001479e-02,  1.449161e-02, -5.129239e-03,
            1.190285e-03, -2.686273e-03, -1.725528e-02],
          [-7.537365e-03, -2.814912e-02,  1.727933e-02,  6.133345e-03,
           -3.223069e-02,  3.159744e-02, -3.778030e-02,  8.361945e-03,
           -1.507244e-02,  2.792289e-02, -1.285902e-02],
          [-9.822583e-03,  2.007344e-02, -2.598634e-02,  1.733560e-02,
           -1.076110e-02, -3.757706e-02,  1.075915e-02,  2.952606e-03,
           -3.274648e-02,  6.225161e-03, -5.740632e-03],
          [ 2.934761e-02, -3.530922e-03, -1.271797e-02,  3.009927e-02,
           -3.573599e-02,  2.963270e-03, -1.794372e-02, -2.838434e-02,
           -1.443679e-02, -1.477286e-02,  2.568513e-02]],

         [[-7.768283e-03, -1.364764e-02,  8.435184e-03, -3.669549e-02,
           -1.859246e-02, -1.385277e-02, -1.819737e-02,  4.074817e-02,
           -2.992819e-02, -2.923837e-03,  1.078940e-03],
          [-1.975871e-02,  1.304187e-02,  1.655296e-02,  1.002389e-02,
            2.781129e-02,  3.154154e-02,  1.284704e-02, -1.398567e-02,
            1.309294e-02,  2.445962e-02,  1.821918e-02],
          [ 2.169897e-02, -5.769978e-03, -3.141532e-03,  3.839679e-02,
            3.859112e-02,  5.784094e-03,  3.085780e-02, -2.238678e-02,
           -5.641656e-03, -2.271604e-02,  1.763636e-02],
          [ 2.368201e-02, -1.520341e-02,  1.759069e-02,  1.401522e-02,
            4.951653e-03, -2.001642e-02,  8.093705e-03,  9.289869e-03,
           -2.037648e-02, -2.436065e-02,  3.047117e-02],
          [-4.921581e-03,  2.555257e-02,  8.798130e-03,  2.641291e-03,
           -1.308216e-03,  2.182674e-02,  8.692425e-03, -2.436670e-02,
           -3.610886e-02,  7.695908e-03,  2.807068e-02],
          [ 2.022525e-02,  8.055238e-03,  3.369131e-02,  3.990146e-02,
           -3.125823e-03,  2.091317e-02,  4.243077e-02, -1.741423e-02,
            1.777630e-02,  1.627132e-02, -1.535086e-02],
          [-1.731383e-02, -9.514531e-03,  6.293221e-03,  1.656793e-02,
           -3.352792e-02,  1.121062e-02, -3.301631e-02,  2.695467e-04,
           -2.458593e-02, -1.392278e-02, -1.261553e-02],
          [-1.796637e-02, -1.843163e-03,  8.339448e-03, -2.180482e-02,
           -2.679594e-02,  2.618333e-02,  3.085856e-03, -3.261880e-02,
            9.994840e-05, -4.192789e-02, -2.618098e-02],
          [-7.372009e-04,  2.433997e-02, -4.116031e-02, -4.009127e-02,
            2.562983e-03, -2.057047e-03, -3.812559e-03,  2.034132e-03,
            1.010015e-02, -9.383515e-03, -2.775581e-02],
          [-2.023013e-02, -4.851576e-02, -2.630058e-02, -2.146047e-02,
            3.393745e-02,  6.162738e-03,  2.757288e-02, -3.023513e-02,
            1.303152e-02, -2.965415e-03, -4.250096e-02],
          [-2.274213e-02, -3.441401e-02, -4.733141e-02, -9.161334e-03,
           -7.255231e-03, -4.319502e-02, -3.663679e-02,  2.082119e-02,
           -1.841123e-02,  1.478768e-02, -3.515335e-02]],

         [[-1.059587e-02,  2.700659e-02, -2.097659e-02,  2.786763e-02,
            2.681812e-02, -1.502283e-02,  2.557671e-03, -7.854532e-03,
           -2.406467e-03, -2.599126e-02, -8.944992e-03],
          [-2.742161e-02,  2.643978e-02, -1.303867e-02, -8.035650e-03,
            1.674858e-02, -1.226588e-02, -2.066074e-02, -1.311906e-02,
           -6.865117e-04,  1.088577e-02, -3.429756e-02],
          [ 2.099790e-02,  2.385035e-03, -3.307773e-02,  3.106030e-02,
           -2.197881e-02, -5.097795e-03,  6.410114e-03, -2.403988e-02,
            2.723680e-02,  2.582482e-02, -1.898925e-02],
          [ 2.929186e-02, -3.043181e-02,  7.763548e-03,  2.600738e-02,
           -3.457514e-02,  1.927657e-03,  8.656636e-03,  3.176149e-03,
           -1.146958e-02, -1.285520e-02, -2.552571e-02],
          [ 3.645176e-02, -1.120542e-02,  3.157904e-02,  7.666305e-03,
           -8.495367e-03, -1.671469e-02,  3.551371e-02, -1.086906e-02,
            2.186992e-02,  1.374751e-02,  7.214405e-03],
          [ 3.007300e-02, -5.459439e-03,  9.721248e-03, -1.864228e-02,
            2.943043e-02, -2.196912e-02, -1.305438e-02,  1.926948e-02,
            7.934938e-03,  3.519776e-02,  2.416590e-02],
          [-8.586190e-03, -2.771360e-02,  1.948127e-02,  3.804304e-02,
            2.998262e-02, -2.766236e-02,  1.046215e-02, -2.562647e-02,
            3.383725e-02,  3.389927e-02, -4.307708e-03],
          [ 2.824617e-02, -2.573847e-02,  2.690809e-02,  3.462600e-02,
           -2.715651e-02,  1.558717e-02, -1.935245e-02, -1.398302e-02,
           -1.985380e-02, -3.548624e-02, -3.343379e-02],
          [ 2.756435e-02,  1.503164e-02, -1.586212e-02, -1.522505e-02,
           -1.444553e-02,  1.587048e-02,  3.142093e-02,  2.241796e-02,
            9.940601e-03, -1.985088e-02,  2.418579e-02],
          [ 2.369950e-02,  1.330444e-02,  1.096870e-03, -2.900458e-02,
            1.595978e-02, -3.028372e-02, -3.441623e-02, -1.812895e-02,
            3.526543e-02,  6.745668e-03,  3.816203e-03],
          [-2.157829e-02, -4.738581e-02,  1.156107e-02, -3.283906e-02,
            4.358947e-03,  1.154109e-02, -3.193337e-02,  1.241534e-02,
           -1.486529e-02, -2.219621e-02, -2.941705e-02]]],


        [[[ 3.413852e-02, -2.325578e-02,  3.698386e-03, -2.344248e-02,
           -1.356631e-02,  4.002669e-03,  2.255834e-02, -3.814753e-02,
            8.125433e-03,  2.670661e-02,  1.135751e-02],
          [ 1.987122e-02,  2.600441e-02, -3.207023e-02, -4.344666e-02,
           -4.448530e-02, -3.184322e-02, -3.462194e-02,  7.291442e-03,
            1.842119e-02, -1.124220e-02, -3.673028e-03],
          [-1.226289e-02, -3.032905e-02,  3.154024e-02,  1.870373e-02,
           -3.015327e-02, -4.307364e-02, -3.750347e-02, -4.760748e-02,
           -2.598256e-02,  5.734358e-03, -2.784242e-02],
          [ 6.533139e-03, -3.390310e-02,  2.220509e-02,  1.684727e-02,
           -6.085102e-03,  1.516530e-02, -2.945568e-02, -1.402406e-02,
            2.250221e-02,  2.355684e-02, -3.875348e-02],
          [-2.344920e-02,  3.235329e-02,  2.738034e-03, -2.456913e-02,
            3.523206e-02, -5.004439e-03, -1.677892e-02, -4.124704e-02,
            8.520497e-04, -2.200709e-02, -1.674730e-02],
          [ 2.110139e-02, -1.701897e-02,  2.445542e-02, -2.565996e-02,
            3.311336e-02, -9.393126e-03, -3.629597e-02, -2.441530e-02,
            3.027693e-02,  2.155552e-02,  2.289896e-02],
          [-5.697364e-03,  3.276603e-02,  2.984548e-02, -1.735678e-02,
            6.474000e-03,  3.655797e-02,  1.129549e-02,  2.908615e-02,
           -6.403493e-03,  1.998503e-02,  1.106230e-02],
          [ 3.360474e-02,  3.264372e-02,  1.460849e-02,  8.951818e-03,
            5.201036e-03, -2.385622e-02,  7.948144e-03, -2.296975e-02,
           -1.074329e-02, -3.264490e-02, -1.954550e-03],
          [ 3.245896e-02,  1.101205e-02, -5.479936e-03,  2.650430e-02,
           -1.650146e-02,  7.349453e-03,  1.329836e-02,  2.619498e-02,
           -1.339271e-02, -1.064976e-03,  1.622786e-02],
          [ 5.583825e-03,  9.173350e-03,  1.398932e-02,  1.030055e-02,
            3.366574e-02,  2.659773e-02, -9.820904e-03, -1.717386e-02,
            6.445557e-03,  3.360766e-03,  4.370869e-04],
          [-1.920033e-02, -1.462113e-03,  1.404126e-02,  3.067567e-02,
            6.025143e-02,  4.360018e-02,  2.061761e-02,  1.497776e-02,
            4.740959e-02,  2.734646e-02, -4.197609e-02]],

         [[-2.939300e-02, -4.288199e-03, -2.351398e-02,  4.484098e-03,
           -1.446399e-03,  9.918781e-03,  4.121784e-02,  3.518666e-02,
           -1.898064e-02, -3.012322e-02,  1.218367e-02],
          [-3.198745e-02,  1.820232e-02, -4.188449e-03, -1.669325e-02,
            3.167912e-02, -1.386788e-02,  1.270295e-02, -1.813847e-02,
           -5.945576e-03, -2.586887e-02, -3.176875e-02],
          [-1.706957e-02, -8.123837e-03, -3.032399e-02, -8.165397e-03,
            1.321176e-02, -3.538871e-03,  1.857237e-02, -9.211654e-03,
           -1.254084e-02, -2.760504e-02, -1.717653e-02],
          [ 1.147788e-02, -2.874644e-03, -2.434739e-02,  1.316346e-02,
           -3.703342e-02, -1.746697e-02, -7.584102e-04,  3.507997e-02,
           -1.945121e-02, -1.986083e-02, -1.112575e-02],
          [ 3.377904e-02,  1.054491e-02,  4.008716e-02, -2.046727e-03,
            1.533732e-02,  1.238250e-02,  3.174829e-02,  1.191560e-02,
           -3.371542e-02, -2.676103e-02,  1.074975e-02],
          [ 1.707469e-03,  1.399458e-02,  1.674634e-02, -1.826388e-02,
           -1.032020e-02, -3.721375e-02,  1.371741e-02, -1.948003e-03,
           -3.693151e-02, -3.297855e-02,  1.859881e-02],
          [ 4.968390e-02,  1.794475e-02,  4.106208e-02,  2.212914e-02,
           -4.068826e-02,  4.349458e-03, -1.021378e-02,  3.413747e-02,
           -3.885691e-02, -9.455441e-03,  8.612541e-03],
          [-2.014592e-02,  2.321292e-02,  4.292613e-02, -1.453336e-02,
           -3.946458e-02, -3.770001e-03, -2.142534e-02,  5.257995e-03,
            5.580852e-03,  1.724351e-03, -1.084610e-02],
          [-2.234197e-02, -1.191009e-02,  4.920163e-02,  1.414322e-03,
            7.233993e-03,  1.894141e-02, -3.289955e-02, -1.128506e-02,
           -4.014276e-02,  3.012192e-02, -2.754661e-02],
          [ 1.949867e-02,  2.032851e-03, -1.511263e-02, -4.459515e-03,
            3.721247e-02,  2.949518e-02,  1.901799e-02, -4.728892e-02,
           -5.518521e-04, -3.544858e-02, -3.149782e-02],
          [-1.490057e-02, -3.194457e-02,  4.868728e-03, -1.205782e-03,
            5.023095e-02,  3.789194e-02, -3.082480e-02, -4.197074e-02,
           -9.562116e-03,  1.721741e-02, -3.304316e-02]],

         [[-2.280040e-02,  7.146247e-03,  1.266133e-02,  7.930498e-04,
            2.333601e-02,  1.466976e-03, -2.496550e-02,  4.794767e-02,
           -2.960944e-02,  1.622735e-02,  2.629146e-03],
          [ 6.615650e-03, -2.165595e-02, -1.019727e-02,  1.095168e-02,
            3.389264e-02, -1.733697e-02, -1.055212e-03, -8.293461e-03,
           -3.634525e-02, -1.167504e-02, -1.596231e-02],
          [-2.821496e-02,  1.625763e-02,  3.828003e-03, -2.248840e-02,
            1.738188e-02,  3.338189e-03, -2.058293e-02, -3.818110e-02,
            1.624053e-02, -1.722451e-02,  3.101127e-02],
          [ 3.885145e-02, -2.354649e-02, -3.179014e-02,  8.332675e-03,
           -1.043011e-02,  1.935320e-02,  2.199051e-02, -1.047661e-02,
           -3.014624e-02, -1.689163e-02, -2.308553e-02],
          [ 2.267861e-02, -1.600941e-02, -2.436247e-04, -1.347635e-02,
            1.854044e-02, -9.077530e-03,  3.888681e-04, -3.960790e-02,
           -1.405077e-02, -1.160513e-02,  2.820159e-02],
          [ 6.705740e-03, -1.812864e-02, -2.548145e-02,  2.644975e-02,
            1.849081e-02,  7.505185e-03,  1.212012e-02, -3.217983e-02,
           -3.656341e-02,  1.574529e-02,  4.473386e-03],
          [ 2.236284e-02,  4.417775e-02,  1.481813e-02, -2.390772e-02,
            1.370998e-02,  3.401038e-02,  6.830341e-03, -1.532023e-02,
            1.534711e-02,  1.401098e-02,  1.509385e-02],
          [-2.819660e-02, -7.601336e-03,  5.549821e-03, -3.084982e-02,
           -1.657544e-02,  1.250841e-02, -9.741645e-04, -7.399383e-03,
           -3.833777e-02, -3.215945e-03,  1.053593e-02],
          [ 1.172568e-02, -2.805557e-02,  2.073289e-02,  1.030887e-02,
           -1.886373e-02, -9.806196e-03, -4.001343e-04,  3.066253e-02,
           -4.043395e-02,  1.813695e-02,  8.140105e-03],
          [-2.056492e-02, -5.532685e-03,  5.427080e-03,  2.969202e-02,
            5.088246e-02, -1.517543e-03,  7.532622e-03,  2.373507e-02,
            1.111414e-03,  2.880358e-02, -1.105950e-03],
          [-1.035300e-02, -1.790860e-02, -1.878228e-02,  1.470951e-02,
            7.021903e-03, -7.239826e-03, -2.776285e-03, -7.402396e-03,
           -3.102815e-02, -3.034400e-02, -3.688605e-02]],

         [[ 3.781097e-02,  3.534188e-02, -1.656489e-02,  4.138721e-03,
           -3.910485e-02, -7.856947e-03, -4.262833e-02,  1.068796e-02,
           -4.340922e-02,  1.253446e-02,  2.268876e-02],
          [-7.299406e-03,  1.497493e-02, -3.143587e-03, -3.559963e-02,
            2.242685e-02, -4.068195e-02, -1.042877e-02, -7.377294e-04,
           -3.996152e-02,  1.762170e-03,  3.041377e-02],
          [-1.258035e-02,  6.844015e-03,  2.666668e-03,  3.420063e-03,
            2.686584e-02, -2.772301e-02,  2.246451e-02, -3.718957e-02,
            5.439064e-03,  2.137066e-02,  1.644064e-02],
          [ 1.950878e-02,  8.610589e-03,  1.341635e-02,  1.002144e-02,
            1.789437e-02,  3.556335e-02, -4.391472e-04,  1.471244e-02,
           -2.211224e-02, -2.814249e-02,  1.963372e-02],
          [ 5.100929e-03,  1.216509e-02, -2.902925e-02, -3.760849e-02,
           -2.734192e-02,  3.064377e-02, -7.203632e-03, -8.078048e-03,
            1.076231e-02, -3.316527e-02,  6.859627e-04],
          [ 1.499780e-02,  7.402502e-03, -3.029203e-02,  2.234217e-02,
           -3.420225e-02,  3.254437e-02, -8.280985e-03,  1.230276e-03,
           -1.274931e-02, -2.376574e-02,  2.292683e-02],
          [-2.661003e-02,  2.309404e-02,  4.768794e-03,  2.291582e-02,
           -2.319971e-02,  1.179812e-02,  8.774359e-03, -3.374886e-02,
            1.594923e-02, -1.954107e-02,  2.502365e-02],
          [ 3.028917e-02,  1.363812e-02,  1.625128e-02, -4.979224e-03,
           -1.058272e-02,  3.353252e-03, -2.954792e-02, -2.634395e-02,
            8.667813e-03, -6.651518e-03,  1.011237e-02],
          [ 1.992008e-02,  2.865062e-02,  2.556119e-02,  5.533910e-03,
            1.639746e-03,  2.479051e-02,  1.029931e-02, -2.825716e-02,
            3.475446e-02, -1.411879e-02,  1.774703e-02],
          [-1.400718e-02, -2.048939e-02,  3.883794e-02,  2.350892e-02,
            2.304787e-02,  4.958816e-02, -1.922832e-02,  2.413522e-02,
           -2.091589e-02,  2.724944e-02, -2.603805e-02],
          [-3.780264e-02, -3.498853e-02,  3.225610e-02,  4.399040e-02,
            3.437414e-02,  5.601057e-02,  2.632299e-02,  2.251901e-02,
           -2.124060e-02, -8.691959e-03, -2.634869e-02]],

         [[-3.663047e-02, -3.082964e-03,  1.608886e-02, -7.743948e-03,
            4.218886e-03,  7.133248e-02,  2.678099e-03,  5.365878e-03,
           -3.529952e-02, -4.237817e-02, -5.579325e-02],
          [-2.881217e-02, -1.955763e-02,  2.968288e-02, -3.125085e-02,
            1.154925e-02,  2.145657e-03,  3.286178e-02, -8.229489e-03,
            2.847559e-02,  1.500233e-02,  1.607651e-02],
          [-2.833345e-02,  3.258040e-02, -1.359115e-02,  2.074204e-02,
            3.503081e-02, -2.625641e-02, -6.065751e-03, -1.308510e-02,
           -9.642873e-03, -2.769733e-02, -4.321172e-02],
          [-1.510935e-02, -2.596236e-02, -1.974719e-02, -1.360547e-02,
           -3.106861e-02, -2.996935e-02,  4.094043e-03, -2.698684e-02,
            1.052555e-02, -9.048414e-03, -3.264952e-02],
          [-9.200920e-04, -3.076646e-02, -1.643481e-02,  1.495661e-02,
            3.641600e-03,  1.964451e-02, -4.477824e-02, -3.985947e-03,
           -1.215290e-02,  9.602969e-03, -4.278530e-02],
          [-2.270261e-02,  2.972246e-02, -8.415092e-03,  6.654825e-03,
           -5.015813e-03,  3.798480e-03, -2.743506e-02, -1.574926e-02,
            1.266453e-02, -2.310765e-02, -4.457901e-02],
          [ 1.373961e-02, -2.618495e-02, -4.889819e-03,  2.714709e-02,
           -3.537414e-02,  2.601881e-02,  2.882877e-02, -2.517405e-02,
           -1.259622e-02,  6.917879e-03, -1.010236e-02],
          [ 1.871561e-02,  1.967251e-02, -1.517047e-02, -8.754662e-03,
           -3.166803e-02, -1.219440e-02, -3.634233e-03,  9.687490e-03,
            9.357646e-03,  1.571250e-03, -2.068733e-02],
          [ 3.776551e-02, -2.131685e-02, -1.257934e-02, -2.575701e-02,
           -1.054172e-02,  2.652397e-03, -1.614325e-02,  1.724578e-02,
           -3.236987e-02,  1.024023e-02,  3.385694e-02],
          [ 4.717426e-02,  3.968509e-02,  2.417277e-03, -4.693926e-03,
           -2.496763e-02, -2.243308e-02,  3.272554e-02,  3.478765e-02,
            4.400447e-03, -1.307761e-02,  4.875346e-02],
          [ 2.282654e-02, -2.668415e-02,  2.994845e-02, -1.672650e-02,
            1.000403e-03,  1.366271e-02,  2.437828e-03,  3.871351e-02,
            1.647942e-02,  4.473910e-02,  9.011639e-03]],

         [[ 3.010555e-02, -3.760591e-02, -2.067623e-02, -3.044071e-02,
            5.474533e-03,  8.029488e-03, -1.942779e-02,  3.125471e-02,
           -3.438120e-03,  3.619993e-02,  3.712405e-04],
          [ 2.504930e-02, -3.268746e-02,  2.566165e-02, -3.267134e-02,
            1.974703e-02, -9.787691e-03, -1.018623e-02, -1.151208e-02,
           -1.288317e-02,  3.573810e-02, -2.776836e-02],
          [ 2.049468e-02,  3.054755e-02, -1.745659e-02, -3.338181e-02,
            8.242490e-03, -2.956838e-02, -4.101757e-03, -3.199621e-02,
            2.067808e-02,  5.226495e-03,  1.099604e-02],
          [ 2.964543e-02, -2.613249e-02, -1.679539e-02, -3.224460e-02,
            1.574356e-02,  3.456258e-02,  3.075859e-02, -2.278883e-02,
            1.169962e-02, -2.700015e-02, -4.990466e-03],
          [-1.719276e-02,  2.977981e-02, -6.063227e-03,  4.405580e-03,
           -1.335897e-02, -3.431237e-02,  1.628872e-03, -4.059319e-03,
            5.283955e-03, -9.440565e-03, -1.222503e-02],
          [-1.348405e-02, -2.740299e-02, -3.655912e-02,  1.643874e-02,
            1.517203e-02,  8.638777e-03, -2.744982e-03, -1.814321e-02,
            1.232637e-02, -3.325049e-02, -3.250179e-04],
          [-6.496401e-03,  8.261905e-03,  1.174998e-02, -2.389677e-02,
           -3.412051e-02,  1.075354e-02, -1.383256e-02, -9.494390e-03,
            2.010014e-02,  1.323375e-02, -3.402230e-02],
          [ 7.527010e-03,  5.767141e-03,  7.016498e-03, -2.854678e-02,
            2.896111e-02,  3.162593e-02,  9.423873e-03, -1.093779e-03,
           -1.301457e-02, -3.187842e-02,  2.048548e-03],
          [ 2.554227e-02,  2.617511e-02, -9.276684e-03,  3.299151e-02,
            2.859625e-02,  1.949681e-02, -2.144507e-02, -7.939166e-03,
           -7.620340e-03, -1.526185e-02, -2.218900e-02],
          [-2.340138e-02,  3.812221e-02,  2.421891e-02,  3.754753e-02,
           -2.605736e-02, -1.607319e-02,  3.288409e-02, -2.284148e-02,
            3.299094e-02, -3.043495e-02, -2.464037e-02],
          [-3.093553e-02, -1.088123e-02,  2.709333e-02,  4.178678e-02,
           -3.445185e-02, -1.838008e-02, -7.040193e-03,  4.082441e-02,
           -1.273497e-02,  1.303427e-02,  8.272705e-03]]],


        [[[-2.537587e-02,  4.164119e-03,  3.032241e-02,  1.491153e-02,
            2.222518e-02, -1.721948e-02,  6.512953e-03,  1.049263e-02,
            2.642005e-02, -3.070389e-02, -4.986851e-03],
          [-2.251341e-02,  8.588968e-03, -2.394009e-02,  3.229675e-02,
           -2.639686e-02, -3.330920e-02,  1.181699e-02, -3.030240e-02,
            3.198877e-03, -1.377871e-02,  3.736378e-02],
          [ 1.871352e-02,  1.124010e-02,  2.292547e-02,  5.097173e-03,
            1.189773e-02, -2.802006e-02, -1.470736e-02, -1.517663e-02,
            2.641987e-02, -1.131950e-02, -2.000191e-02],
          [-1.671539e-02, -2.974224e-02,  2.380131e-02, -3.168453e-03,
            3.272085e-02,  1.966711e-02,  2.700243e-02, -3.809144e-02,
           -3.653527e-02, -1.453227e-02,  1.892039e-02],
          [ 2.094638e-02, -2.107490e-02, -6.971390e-03,  1.299876e-03,
           -2.230983e-02,  6.351526e-03, -4.316653e-02, -5.554175e-03,
           -1.772768e-02, -1.547282e-02,  2.050712e-02],
          [-3.304710e-03,  1.523946e-02, -2.400873e-03, -1.038892e-02,
           -3.547929e-02,  2.562681e-03, -6.688928e-04,  7.685812e-03,
           -1.041478e-03,  1.402132e-02,  1.613361e-02],
          [-3.152911e-02, -2.165558e-02, -3.598708e-02,  3.747216e-03,
            8.988848e-04, -2.172112e-02,  1.340318e-02, -1.057895e-02,
           -2.260546e-02,  3.911349e-02,  4.675169e-03],
          [-1.738268e-02,  2.091507e-02, -2.439239e-02,  1.098145e-02,
            3.104543e-02, -2.532725e-02, -1.028240e-03, -2.635318e-02,
            2.951875e-02, -5.574190e-03,  7.268287e-03],
          [-3.062952e-02,  2.073134e-02, -3.064194e-02, -3.301056e-02,
            4.533906e-03, -3.161278e-02,  2.949773e-02, -1.335348e-02,
            2.810966e-02,  2.133883e-02,  2.974218e-02],
          [ 2.789850e-02, -3.525049e-02,  2.494756e-03,  1.256384e-02,
            1.072180e-02,  1.791352e-02, -1.804850e-03,  2.228220e-02,
           -3.533303e-02,  2.824090e-02,  2.784653e-02],
          [ 1.137549e-03, -3.548519e-02,  2.100325e-02,  2.681881e-02,
            7.100727e-02,  5.907153e-02,  5.487453e-02,  1.389899e-02,
            3.450798e-02, -1.118990e-02, -3.749456e-02]],

         [[-7.888989e-03, -1.417403e-02,  1.674837e-02,  3.455893e-02,
            1.959416e-02,  3.715613e-02, -7.533452e-03, -3.663936e-03,
           -9.551696e-03, -3.064958e-02,  1.532359e-02],
          [ 9.301119e-03, -3.626747e-02,  1.647818e-02,  2.014607e-02,
            4.114475e-02, -1.989678e-02,  1.520754e-02, -2.774754e-02,
            3.645133e-03, -2.232331e-02,  3.906922e-02],
          [ 4.530888e-03, -1.762422e-02, -9.256006e-03,  1.586339e-02,
           -1.222189e-03, -9.744569e-04, -2.854824e-02,  1.762052e-03,
           -2.044061e-02, -1.631548e-02,  4.221352e-02],
          [ 8.705263e-03,  2.751118e-02, -2.929030e-02, -1.412114e-03,
            4.025553e-02,  3.159166e-02, -1.808145e-02,  3.479837e-02,
            7.035507e-03, -1.750248e-02, -2.512466e-02],
          [-2.624585e-02,  2.354080e-02, -3.802684e-02, -9.340067e-03,
           -2.228222e-02, -1.698349e-02,  6.237756e-03, -3.461795e-04,
            1.362870e-02,  2.813519e-02, -2.646949e-02],
          [-3.103217e-02, -1.602606e-02,  1.356586e-02, -3.772886e-02,
            4.815478e-03,  1.394537e-02, -3.777016e-02,  2.220082e-02,
            4.355472e-03,  2.676992e-02, -9.506940e-04],
          [ 5.452257e-03,  2.675447e-02, -4.774059e-03, -2.917885e-02,
           -8.020980e-03,  2.022083e-03, -3.367068e-02, -1.942850e-02,
            2.170223e-02,  1.665486e-02,  1.805465e-02],
          [-3.697994e-02,  1.289483e-03,  2.210020e-02,  2.867377e-02,
           -3.671532e-02, -2.286658e-02, -9.629504e-03, -1.669351e-02,
            3.401805e-03,  1.379772e-03,  2.984709e-02],
          [-4.394365e-03, -3.447439e-02, -1.575943e-03,  2.096145e-02,
           -1.806179e-02, -3.538567e-02, -1.357995e-03, -1.230428e-02,
            4.306131e-02, -2.789608e-03,  1.604691e-02],
          [ 1.143507e-02,  2.985393e-02, -3.975735e-02,  1.154172e-02,
            7.811504e-03,  1.444034e-03, -2.141947e-02,  9.123563e-03,
            3.003116e-02, -2.310286e-02,  5.174937e-03],
          [ 2.475169e-02,  2.168134e-02,  1.815154e-02,  1.970406e-02,
           -2.278715e-03,  1.840903e-02,  2.694683e-03,  4.133599e-02,
            2.493338e-02,  4.445196e-02,  3.739007e-03]],

         [[-2.306991e-02, -3.060524e-02, -1.760655e-03,  1.115026e-02,
           -2.967033e-02, -9.454338e-03, -3.857832e-03, -3.816042e-02,
           -9.516859e-04,  1.157648e-02, -1.592345e-02],
          [ 3.355803e-02,  1.376081e-02,  6.687102e-03,  2.457417e-02,
           -1.518763e-02,  1.534000e-02,  9.187300e-03,  1.548358e-02,
           -3.838057e-02,  2.693533e-02,  4.087893e-02],
          [-2.681341e-02, -3.063006e-02, -8.417883e-05, -1.417127e-02,
           -3.444796e-02,  2.347926e-02,  1.844238e-02, -1.056136e-02,
            2.820673e-02,  1.116012e-02,  3.040506e-02],
          [ 2.033147e-02, -6.731698e-04,  2.878982e-02, -2.993004e-02,
           -1.730451e-02,  1.315346e-02, -6.701819e-03, -2.310732e-02,
           -1.774831e-02, -2.055204e-02, -2.806652e-03],
          [-2.328284e-02, -1.122441e-02, -3.273633e-02,  8.881658e-04,
            1.225553e-02, -1.762763e-02, -3.049529e-02, -3.738739e-03,
            2.667307e-02,  1.354165e-02,  2.428454e-02],
          [-1.388152e-03, -3.098777e-03, -5.739389e-03,  2.338606e-02,
            2.238156e-02,  5.831526e-03,  1.671435e-02,  3.879190e-02,
           -2.700165e-02,  2.133879e-02,  3.972481e-02],
          [ 1.812200e-02, -3.082068e-02,  3.565964e-02,  1.275482e-02,
            3.582058e-02, -2.194068e-02,  2.664811e-02,  2.846855e-02,
            3.018633e-02,  4.828344e-02,  2.419323e-04],
          [-1.106141e-02, -1.807874e-02,  3.795188e-02, -1.427489e-02,
            2.697696e-02, -7.248935e-03, -6.401192e-03, -1.317299e-02,
            3.174945e-02,  3.217193e-02,  2.153007e-02],
          [-2.545030e-02,  3.381390e-02,  3.254597e-02, -1.014754e-02,
            2.640719e-02, -1.468155e-02, -2.922161e-02, -1.612422e-02,
            1.205165e-02,  3.339448e-02,  2.281238e-02],
          [-2.371817e-02,  3.450107e-02,  1.319136e-02, -2.304663e-02,
            3.186313e-02,  2.383677e-03,  1.930631e-02, -9.443500e-04,
           -6.803256e-03,  2.346362e-03, -8.768078e-03],
          [ 2.502494e-02,  2.946164e-02, -2.521543e-02, -1.241217e-02,
            2.764295e-02, -2.372933e-02,  1.926050e-03, -1.871499e-02,
            2.223157e-02, -1.067359e-02, -7.727570e-03]],

         [[-6.692398e-03, -2.638464e-02, -5.175014e-03, -4.571611e-03,
            1.175139e-03,  2.719488e-02,  5.638007e-03, -1.921419e-02,
           -4.011589e-02, -3.035216e-02, -7.945783e-03],
          [-2.584935e-02, -2.059525e-02, -3.406147e-02, -1.063447e-02,
           -5.445099e-03,  2.391733e-02, -2.628687e-02,  1.649241e-02,
           -2.808894e-02,  2.537231e-02, -1.633660e-02],
          [ 2.038719e-02, -3.258382e-02, -1.886035e-02,  1.307031e-02,
            1.740300e-02,  2.707492e-04,  5.691802e-03, -3.734621e-02,
            1.371595e-02, -2.307181e-02, -3.247764e-02],
          [ 6.860374e-03, -2.800977e-02, -2.406847e-02, -2.557447e-03,
           -3.434722e-02, -1.276751e-02,  1.326414e-03, -8.127755e-03,
            3.299790e-02, -1.250188e-02,  9.602664e-03],
          [ 1.479301e-02, -8.404898e-03, -1.944126e-02, -1.227168e-02,
           -2.869976e-02,  3.063354e-02, -1.710239e-03, -3.274477e-02,
           -2.065782e-03,  2.722724e-02,  2.260794e-02],
          [-1.334677e-02,  1.036578e-02, -3.099783e-02,  2.519855e-02,
            1.443986e-02,  3.197835e-04, -4.610003e-03,  1.642553e-03,
            3.041231e-02, -3.130057e-02,  8.950530e-03],
          [ 2.560061e-02,  3.526504e-02, -3.375398e-03, -1.343445e-02,
           -2.598674e-02, -2.862065e-03,  1.551638e-02, -1.975058e-02,
           -6.570581e-04, -1.996713e-02,  3.094655e-03],
          [-3.703849e-02,  2.304666e-02,  3.535454e-02,  2.531557e-03,
            2.253901e-02,  2.323623e-02,  5.341235e-03,  3.091829e-02,
            4.546844e-03,  2.407423e-02,  3.360638e-02],
          [-6.390519e-03, -8.390895e-03, -1.564727e-02,  3.716376e-02,
            2.461064e-02, -2.578607e-02, -2.310321e-02,  2.076216e-02,
            1.574664e-02,  3.771455e-02, -3.451467e-03],
          [-9.667610e-03, -2.424038e-02,  7.841688e-03, -1.975377e-02,
           -1.284415e-02,  2.782294e-02,  1.740413e-02,  2.147419e-02,
           -6.052738e-03,  2.942508e-02, -3.000585e-02],
          [-2.871777e-02,  3.818322e-03, -1.922622e-02,  3.928903e-02,
            1.422891e-02,  1.465118e-02, -4.915657e-04,  4.043500e-02,
           -3.485781e-02, -1.537006e-02, -1.208119e-02]],

         [[ 2.436624e-03,  9.342005e-03,  1.847944e-02, -8.791178e-03,
           -9.187481e-03,  1.469671e-02, -7.518917e-03,  9.924999e-03,
            2.398917e-02, -2.129410e-02, -8.578260e-03],
          [-2.865983e-02, -2.151676e-02, -1.035092e-02,  1.526764e-02,
           -4.013710e-02, -7.011240e-03,  8.248636e-03, -1.649253e-02,
            2.818299e-02, -4.064282e-02,  3.063210e-03],
          [ 3.235567e-02, -1.360841e-02, -2.685246e-02, -1.252080e-02,
           -3.664461e-02, -3.540886e-02, -2.438698e-02, -1.643755e-02,
           -1.940224e-02, -1.678712e-03,  1.688279e-02],
          [ 3.678465e-02,  6.231327e-04, -1.009970e-02,  4.417060e-03,
           -9.715702e-03,  2.192420e-02, -3.247596e-02,  1.683892e-02,
            1.235270e-02, -8.338112e-03, -2.714959e-02],
          [ 2.472964e-02,  5.150713e-03,  1.868019e-02, -2.235055e-02,
            3.369988e-03,  3.186709e-02, -2.648176e-02, -2.418398e-02,
           -2.069636e-02, -7.509161e-03, -2.917006e-02],
          [ 3.391783e-02,  7.442839e-03, -2.779582e-02, -2.263878e-02,
           -1.169154e-02, -1.927494e-02,  2.470065e-02,  6.104640e-03,
           -1.617526e-02,  5.850644e-03, -1.389958e-03],
          [ 1.657772e-02, -1.941906e-02,  1.056949e-02, -1.822400e-02,
           -2.701748e-02, -2.968076e-02,  1.342847e-02, -3.466295e-02,
            1.970763e-02, -5.097627e-03,  1.565737e-02],
          [ 1.278355e-02, -2.139884e-02,  9.523217e-03,  1.365601e-02,
           -3.535489e-02, -3.821125e-02,  1.349942e-02,  2.966084e-02,
           -3.055016e-03, -2.686734e-02, -1.984407e-02],
          [-5.618497e-04, -7.798733e-04, -2.043931e-02,  3.315313e-02,
           -2.680330e-02, -2.644682e-02, -3.371347e-02,  2.108668e-02,
           -7.555644e-03,  3.220968e-02,  3.428069e-02],
          [ 2.978201e-03, -1.328369e-02, -2.659015e-02, -1.711246e-02,
           -1.295723e-02, -3.452092e-02, -9.389269e-03, -3.184946e-02,
           -2.840907e-02,  4.346298e-02,  2.630616e-02],
          [ 3.141591e-02, -4.366367e-02, -3.406985e-02, -8.120482e-03,
            2.416956e-02, -2.716406e-02, -2.912389e-02,  3.874015e-03,
            3.466331e-02,  1.597575e-03, -1.395309e-04]],

         [[-2.656804e-02,  1.788051e-02,  3.728267e-03, -1.866018e-02,
            3.677475e-02, -2.650874e-02,  2.010054e-02,  8.753809e-03,
            8.867814e-03, -2.729015e-02,  1.353428e-02],
          [ 4.153130e-03,  3.418782e-03, -1.073503e-02,  1.183797e-02,
            1.590986e-02, -3.596428e-02, -3.299200e-02,  2.681009e-02,
           -2.058831e-02,  3.004709e-02,  3.578254e-02],
          [ 3.190454e-02, -1.887318e-02,  1.793573e-02,  1.530730e-02,
            1.097784e-02, -1.743326e-02, -2.797813e-03,  1.785890e-02,
           -1.765757e-03,  1.841689e-02, -2.793672e-02],
          [-1.806211e-02,  2.330343e-02,  3.049355e-02, -1.384395e-02,
            1.458112e-02,  1.665278e-02,  2.348948e-02, -5.958296e-03,
           -5.749569e-03, -2.594556e-02,  4.042695e-03],
          [-3.783216e-02,  3.695624e-03, -9.459323e-03,  7.547490e-03,
            2.989563e-02, -1.286827e-02,  3.281612e-02,  4.525776e-03,
            2.081656e-02,  2.592135e-03,  2.095761e-03],
          [-1.631869e-02, -2.868147e-02, -2.336431e-02,  7.380057e-04,
            2.562847e-02,  1.540834e-02,  3.342647e-02,  2.173933e-02,
           -9.912626e-03,  3.528564e-02, -6.032300e-03],
          [ 4.183262e-03, -2.849025e-02, -8.919649e-03,  5.621651e-03,
            2.681174e-02, -1.558490e-02, -2.410301e-02, -2.390096e-02,
            8.516824e-03, -3.390530e-02,  4.335657e-04],
          [-3.740811e-02, -2.672479e-02, -8.642467e-03,  2.016629e-02,
            4.043955e-03, -1.610589e-02, -2.937085e-02, -6.267557e-03,
            1.100882e-02, -2.437821e-02,  2.755227e-02],
          [-1.774160e-02, -1.744390e-02, -1.894780e-03, -3.622403e-02,
           -3.470872e-02, -7.821179e-03,  3.815470e-03, -1.122374e-02,
           -3.236816e-02, -1.708053e-02, -4.279201e-03],
          [ 4.597507e-03, -2.061496e-02,  1.622847e-02, -1.703218e-02,
           -6.142654e-03,  2.206567e-02,  3.527596e-02, -1.651084e-02,
            1.288213e-02,  2.226632e-02, -3.522954e-02],
          [-2.472544e-02,  3.745371e-02,  4.905676e-03,  1.484355e-03,
           -1.766775e-02, -1.456211e-02, -1.534797e-02, -2.178291e-02,
           -2.590704e-03, -1.943025e-02,  6.469493e-03]]],


        [[[-2.989034e-02, -1.205946e-02,  4.244535e-03, -1.672914e-02,
           -2.203128e-02, -2.508342e-02, -1.627889e-02, -4.840975e-02,
            6.458921e-04, -3.006286e-03,  3.330596e-02],
          [-1.625325e-02,  7.507166e-04, -2.378922e-02,  6.568681e-04,
            2.550369e-03,  1.367856e-02,  7.523335e-03,  3.184116e-02,
            4.116569e-02,  1.271991e-02, -7.801495e-03],
          [-3.151671e-02, -1.858249e-02,  3.005023e-02, -2.544016e-02,
            1.774511e-02, -7.250761e-03, -1.401853e-02,  2.194242e-02,
            9.375882e-03, -7.973211e-03,  3.072684e-02],
          [-2.520699e-02,  2.818152e-02,  3.760773e-02, -9.951534e-03,
           -1.979411e-02, -2.423815e-02,  7.767203e-03, -2.822514e-03,
           -8.116535e-03,  7.204078e-03, -1.786445e-02],
          [ 1.105084e-03,  3.783060e-03,  3.727851e-02,  2.148577e-02,
           -2.656617e-02,  4.063779e-02,  3.772783e-02,  1.309377e-02,
            5.841343e-04, -1.715395e-02,  2.559077e-02],
          [-5.604852e-03,  4.077122e-02,  1.261230e-02,  2.434359e-03,
           -8.839156e-03,  5.426520e-03, -1.901090e-02,  2.078912e-03,
            4.447380e-02, -1.091464e-02, -9.421268e-03],
          [ 2.521935e-02,  2.917675e-02,  1.561293e-02,  3.962865e-02,
            1.010119e-02,  2.301343e-03,  7.941553e-03,  1.922548e-02,
           -1.412841e-02,  1.371808e-02,  4.140385e-02],
          [-1.703067e-02, -2.992744e-02, -1.532923e-02,  3.009830e-02,
            2.253850e-02,  4.989114e-02,  2.780697e-02,  7.154127e-03,
            1.897159e-02,  3.228632e-02, -4.111039e-03],
          [ 2.171499e-02, -3.341130e-02, -3.594656e-02, -2.139481e-02,
           -2.986789e-02,  4.056815e-02,  6.650884e-03, -1.709414e-03,
            3.004597e-02, -2.378032e-02,  9.603000e-04],
          [-2.962742e-02, -8.944480e-03, -8.656197e-03,  3.136624e-02,
            3.474920e-02, -3.113049e-02,  3.179972e-03,  2.360057e-02,
            2.560909e-02, -4.736831e-04,  3.577572e-02],
          [-3.081637e-03,  8.609184e-03, -2.535710e-02,  2.526857e-04,
           -1.279035e-02, -1.277430e-02,  1.111034e-02, -1.131508e-02,
           -1.955907e-02, -1.829142e-02, -3.217169e-02]],

         [[ 3.955012e-02,  2.130450e-02,  3.587786e-02, -1.132631e-02,
           -5.243263e-02, -2.468173e-02, -3.038175e-02,  2.016448e-02,
           -1.331780e-02, -2.004693e-03, -5.819220e-03],
          [-1.032323e-02,  1.921651e-02, -1.296944e-02,  6.441671e-03,
           -2.149913e-03, -4.181824e-02, -3.722672e-02,  1.299423e-02,
           -2.382094e-02,  2.127907e-02, -2.252615e-02],
          [-3.617972e-02,  4.211668e-03, -5.156964e-03, -5.273076e-02,
           -1.179028e-02, -4.333237e-02,  2.795496e-02,  1.425466e-02,
            9.609249e-03, -8.606130e-03, -3.461856e-02],
          [-1.590940e-02, -3.718079e-03, -1.829462e-02,  1.866240e-03,
            1.728060e-02,  1.990087e-02, -6.533599e-03,  1.098767e-02,
           -1.252173e-02, -1.242694e-02, -2.031323e-02],
          [-1.717288e-02, -7.545759e-04, -3.211286e-02, -2.419589e-02,
            1.010611e-02,  1.001474e-02, -3.432671e-02, -2.115439e-02,
           -2.846504e-02, -2.951147e-02, -1.568362e-02],
          [-4.528252e-02,  2.017317e-02,  1.086712e-02,  2.260042e-02,
           -4.403901e-02, -2.363827e-02, -3.616767e-02, -1.718724e-03,
           -3.707905e-02, -6.203743e-03,  2.129069e-02],
          [ 2.023166e-02,  9.196355e-03,  2.906505e-02,  2.209590e-02,
            2.939777e-02, -5.465872e-03,  1.107016e-02,  1.568695e-02,
           -4.810301e-03,  1.823912e-02, -3.337790e-02],
          [-3.774099e-02,  1.718290e-03,  4.285528e-03,  2.759848e-02,
           -1.678267e-02,  7.409535e-03,  7.033598e-03, -3.308198e-02,
            7.383262e-03,  1.190671e-02,  9.862473e-03],
          [ 1.075283e-02,  1.332474e-02, -2.517438e-02, -3.585600e-02,
           -2.661117e-02,  1.002078e-02, -1.122380e-02,  6.011876e-03,
            7.946642e-03,  4.767868e-03, -3.358018e-02],
          [ 4.562096e-02,  4.199631e-02, -8.742925e-03, -3.859154e-03,
           -2.352469e-02,  5.865722e-03, -2.045735e-02,  3.172082e-02,
           -5.836936e-03, -2.461187e-03, -1.063254e-02],
          [ 1.659438e-02,  4.471802e-02, -1.092137e-02,  1.099702e-02,
           -8.073525e-03, -2.983328e-03, -5.008424e-02, -3.734746e-03,
           -3.526185e-02,  2.406145e-03, -2.305587e-02]],

         [[-1.765192e-04,  2.069967e-02,  3.102532e-02, -1.683176e-02,
           -1.184051e-03, -3.183496e-02, -4.127958e-02, -3.884868e-02,
            4.856615e-03, -3.424416e-02,  1.574191e-02],
          [-1.032587e-02, -3.436868e-02, -4.092205e-02,  2.551771e-02,
           -2.331973e-03,  1.890174e-03,  1.057371e-02, -2.018395e-02,
           -4.290590e-02, -2.408837e-02, -1.799541e-04],
          [-2.099982e-02, -3.279787e-02,  2.533431e-02,  1.468671e-02,
           -3.671895e-02,  1.255624e-02,  1.194339e-02, -2.724696e-02,
            1.647068e-02, -2.393374e-02,  3.376763e-02],
          [ 1.586893e-02, -9.249547e-03,  2.398188e-02, -1.920442e-02,
            2.118663e-02, -1.383656e-02, -5.950625e-03, -2.433278e-02,
            2.476860e-02, -9.119810e-03, -1.940854e-02],
          [ 3.309253e-02, -2.923238e-02,  1.882350e-02,  1.084719e-02,
           -3.778818e-03, -5.402736e-03,  5.806793e-03, -2.354107e-02,
           -6.180566e-03,  8.134716e-03,  3.400653e-02],
          [-3.088681e-02,  2.172609e-02, -3.286809e-03,  2.796007e-02,
           -2.546125e-02, -3.199124e-02,  2.244953e-02,  6.518873e-03,
           -3.072247e-02,  3.237888e-02, -1.188770e-02],
          [ 2.370419e-02,  2.736199e-02,  1.261798e-02,  3.931003e-02,
            3.665041e-03,  5.962706e-03,  2.409088e-02, -9.606718e-03,
            2.939186e-03, -2.373030e-02, -2.261061e-02],
          [-6.755690e-03,  1.502840e-02,  4.169164e-03, -1.485206e-02,
           -7.225020e-03, -4.471290e-02,  1.591955e-02, -4.400136e-04,
           -2.648386e-02, -1.277722e-02,  1.888354e-02],
          [ 2.993829e-02, -1.660436e-02,  7.103501e-03,  1.814714e-02,
           -1.886162e-02, -2.407787e-02, -2.415708e-02,  1.357546e-02,
            3.091448e-02,  4.224132e-02, -3.029066e-02],
          [-2.551829e-02,  5.425152e-03, -2.770271e-02,  2.233236e-02,
           -1.715334e-02,  1.051168e-02,  5.700399e-03, -1.951356e-02,
            4.008736e-02, -3.591291e-03,  1.596818e-03],
